#ifndef PARAMETERS_H
#define PARAMETERS_H

// Automatic Export from PyTorch
// Float32 weights for HLS verification

// Layer: conv1_weights | Shape: (6, 1, 5, 5)
const float conv1_weights[6][1][5][5] = {
	0.29500049, -0.30500746, -0.43806195, -0.44209176, -0.13085440, 0.50349241, 0.10385457, -0.38417864, -0.64745021, -0.22720280, 
	0.62415415, 0.14491397, -0.12549418, -0.47534427, -0.23157273, 0.46057740, 0.42518049, 0.08220302, 0.07300656, -0.17691895, 
	0.20395291, 0.15214306, 0.30589715, 0.25404790, -0.12259351, 0.15119697, 0.30616131, 0.16851844, -0.08358385, -0.29888457, 
	0.07530539, 0.06977443, 0.22830378, -0.03237484, -0.25606370, 0.10331813, 0.37580210, 0.25716829, -0.01903047, -0.43333456, 
	0.19118826, 0.36172071, 0.21382599, -0.32935220, -0.42868015, 0.04740380, 0.05226127, 0.05392572, -0.33064753, -0.31370947, 
	0.21122614, 0.11197347, -0.24051178, -0.14013086, 0.04567953, -0.02241158, -0.23958491, -0.27491698, -0.07207605, 0.28051418, 
	0.04546729, -0.17622620, -0.06253889, 0.03527503, 0.30997282, 0.09508731, -0.02867515, -0.17742664, -0.28515106, 0.18879206, 
	-0.25381148, -0.34527439, -0.30243894, -0.06770740, -0.04478021, -0.12313834, 0.15478992, 0.13410355, 0.00122270, -0.28327084, 
	0.19773242, 0.13950549, -0.04952386, 0.00037604, -0.26140118, -0.20164627, -0.08204752, 0.22281091, 0.28580797, -0.22742784, 
	0.00022815, -0.12429456, -0.09176537, 0.19007248, -0.19617161, -0.27279297, -0.15769769, -0.14995331, 0.28393415, 0.04409014, 
	-0.06978420, -0.53633046, -0.26348659, -0.23167485, -0.15282556, -0.50498176, -0.48680145, -0.07119483, -0.28365386, -0.10644372, 
	-0.22961563, -0.03860430, 0.12765503, 0.20968926, 0.05884997, -0.03329703, 0.34720019, 0.44517484, 0.36367905, -0.00626025, 
	0.06960776, 0.47015327, 0.44208094, 0.39528763, 0.09508468, -0.02770443, -0.49528122, -0.43474060, 0.15622948, 0.26555258, 
	-0.08585581, -0.26382160, -0.06484688, 0.00121006, -0.12054114, -0.21844895, -0.12678753, -0.17228864, -0.03166152, -0.10555657, 
	0.19988371, -0.14203294, -0.10460287, 0.30428860, 0.25384593, -0.06480426, 0.07038395, 0.26176390, 0.51285326, 0.36107638, 
	
};

// Layer: conv1_bias | Shape: (6,)
const float conv1_bias[6] = {
	0.24351962, 0.19982119, -0.02462900, -0.21864600, 0.22138897, 0.14932919, 
};

// Layer: conv2_weights | Shape: (16, 6, 5, 5)
const float conv2_weights[16][6][5][5] = {
	0.27340198, 0.18915714, -0.16547400, -0.07064406, -0.00627009, 0.34665534, 0.38792631, -0.03393991, -0.11226798, -0.11262215, 
	0.11988861, 0.07086208, -0.05791929, -0.16995938, -0.15797617, -0.40008053, -0.47840738, -0.12117696, 0.00737245, -0.08313059, 
	-0.34251833, -0.78164995, -0.36237821, -0.09974343, -0.18263999, 0.05942794, -0.22097349, -0.43194532, -0.32929733, 0.17911336, 
	0.04023500, -0.34641472, -0.46826765, -0.07230181, 0.13652807, -0.24461663, -0.38567558, 0.32910129, 0.26551169, 0.19647275, 
	-0.24471658, 0.05332062, 0.48163158, 0.38671127, 0.17864823, -0.26007313, 0.26358691, 0.36221248, 0.12769672, -0.02802649, 
	0.05560483, 0.16719829, 0.03350161, 0.03815395, 0.06500200, 0.01163695, 0.08507878, 0.11228162, 0.00409607, 0.17233393, 
	0.02531729, -0.10075304, -0.15337823, 0.02156578, 0.08707656, 0.09671456, -0.03777344, -0.08980350, 0.17231216, 0.26162329, 
	0.01066011, -0.09756923, -0.00287681, 0.22930464, 0.26089483, 0.05743327, 0.03022562, 0.10874627, -0.00217952, 0.07104857, 
	-0.07537843, -0.09423185, -0.08080775, -0.07164561, 0.00308323, -0.13918561, -0.23360489, -0.31214967, -0.22517538, 0.11306290, 
	-0.15823960, -0.28069624, -0.16936263, 0.05199244, 0.15397182, -0.12353132, 0.01938591, 0.07731132, 0.24782625, 0.25283402, 
	0.24837089, 0.02007942, 0.12886240, 0.05098151, -0.00390702, 0.20624816, 0.36996016, 0.46816531, 0.18177633, 0.05574891, 
	0.11739942, 0.39280409, 0.37023216, -0.13247956, -0.18626411, -0.01123395, 0.07928178, -0.38856298, -0.71577883, -0.17895396, 
	-0.32841319, -0.71489018, -1.14519441, -0.42674547, -0.04669147, 0.14847876, 0.14578828, 0.04440515, -0.13485974, -0.20115183, 
	0.07464685, 0.28195384, 0.25275773, 0.00322167, -0.09767864, 0.00408531, 0.09884173, 0.02441686, -0.21793914, -0.07495894, 
	-0.07827882, -0.17825940, -0.67061841, -0.35676372, 0.11914051, -0.25608701, -0.47424951, -0.83663583, 0.03081154, 0.21011700, 
	0.02085688, -0.03139927, -0.19924845, -0.02556681, 0.11434413, 0.12961328, 0.08440480, -0.03844158, 0.04655780, -0.00235161, 
	-0.29469633, -0.31017515, 0.05652143, -0.01300145, 0.04269356, -0.14865613, -0.12855217, 0.09580776, -0.19028382, 0.07525548, 
	0.02504912, 0.02437085, 0.09816179, -0.01884663, 0.17863932, -0.09366833, -0.27549431, -0.26429373, 0.34633780, 0.22996557, 
	-0.14858563, 0.16420731, 0.20428348, 0.26080900, 0.11921805, 0.04696746, 0.45761442, 0.19485407, -0.22549611, -0.10625109, 
	0.07961294, 0.32636389, -0.15870741, -0.35774764, -0.23855901, -0.10130969, -0.21358775, -0.23433785, -0.22143734, -0.03778073, 
	-0.12586500, -0.03882176, -0.08443972, -0.06396797, -0.03540289, 0.02319731, -0.13269556, 0.04118524, -0.00628976, 0.00090385, 
	-0.10794176, -0.13387688, 0.05164358, 0.15187219, 0.10358907, 0.01335113, 0.04225105, 0.10444330, 0.07938857, 0.01433973, 
	-0.07700158, 0.12369036, 0.05443332, -0.03960820, 0.05318528, -0.16814485, -0.06458036, -0.10586837, -0.12291531, 0.09118473, 
	-0.08178181, -0.08218160, -0.00723290, 0.08792669, 0.14133364, -0.12271756, -0.09612903, 0.18519591, 0.14068486, 0.03569063, 
	-0.11171623, 0.11549816, -0.02201709, -0.06187258, -0.02681348, -0.10058086, -0.02079210, -0.03738180, -0.06283525, 0.02668120, 
	-0.14164326, 0.02752324, 0.03076882, -0.05626629, -0.07170764, 0.15583305, 0.40451556, 0.22321305, -0.23034920, 0.03495910, 
	-0.11873684, -0.05873060, -0.57809991, 0.01397757, 0.11662638, -0.21969208, -0.04178508, 0.20863904, 0.35980645, -0.01872057, 
	0.00268899, 0.14669505, 0.35602868, 0.13281046, 0.06107438, 0.03990097, 0.13955197, 0.04527637, -0.30342388, -0.13896440, 
	0.19853562, 0.32402620, 0.06873458, -0.26175615, -0.13115938, -0.10643205, -0.38579050, -0.21639584, -0.04993345, -0.00163509, 
	-0.03092674, -0.13027956, 0.20549783, 0.09024148, -0.00825146, -0.11744168, -0.02101099, 0.20366445, 0.03644503, -0.23226170, 
	0.17800988, 0.00649067, -0.36384463, -0.51001608, -0.19976202, -0.14469284, -0.07631136, 0.37135699, -0.32998392, -0.37386233, 
	-0.05915942, -0.02098117, 0.32660171, -0.16729367, -0.46316171, -0.00188054, 0.04784643, 0.13308688, 0.32031858, -0.05700252, 
	-0.28276989, -0.07743966, -0.28641307, 0.28875738, 0.23941953, -0.38948941, 0.02067186, 0.07631840, -0.12774391, -0.11119566, 
	-0.11266957, 0.45823652, -0.02556867, -0.53330505, -0.13181235, 0.14313550, 0.35736656, -0.04195545, -0.33233565, -0.37588304, 
	0.31528884, 0.23977314, 0.02225323, 0.30550271, -0.16906562, 0.28703460, 0.19477364, 0.05339282, 0.21193175, -0.32938394, 
	-0.11992746, -0.06792796, 0.03094249, 0.17009071, -0.02508526, -0.12615249, -0.02284801, 0.08815169, 0.19167198, 0.01466515, 
	-0.16564170, -0.06227229, 0.22675306, 0.09522404, 0.11329322, 0.00346068, 0.04343355, 0.07766262, -0.05000379, 0.17630270, 
	-0.04211497, 0.07604959, 0.01096879, -0.02154127, 0.09301294, -0.08552414, -0.17460972, -0.14619750, 0.03888914, 0.15478863, 
	-0.09010453, 0.07678071, 0.10728471, -0.06994385, -0.03013639, -0.33598930, 0.03348246, 0.10581135, -0.18076706, 0.09035206, 
	-0.08253438, 0.08256091, 0.13572508, 0.15260923, 0.09797038, 0.15735403, 0.02503574, 0.16254090, 0.22189096, -0.11774627, 
	0.17712238, 0.31669816, -0.23652352, -0.27398884, 0.18381566, 0.18785495, -0.07262163, -0.41276348, 0.06360098, 0.43661860, 
	-0.02072253, -0.36620721, 0.02360766, 0.02795731, -0.30802372, -0.15297036, -0.07156635, 0.24990167, 0.08391906, -0.30508900, 
	-0.25686458, -0.01329295, 0.01944459, -0.17476308, -0.11149111, 0.19980550, 0.04411773, -0.14806627, 0.07750081, 0.20668842, 
	0.03066490, -0.28482315, -0.01482057, 0.19065060, 0.23369023, -0.07974248, -0.31833068, 0.16882829, 0.00944462, 0.06790170, 
	-0.17548300, -0.19608039, 0.35628599, -0.17633125, 0.05624941, -0.10666354, -0.06090823, 0.01210493, -0.20920861, 0.24683154, 
	-0.19561639, -0.11026392, -0.08785995, 0.09756409, -0.00639292, 0.10934330, -0.19605763, -0.32863852, 0.17927746, 0.15533547, 
	0.20658404, -0.00104839, -0.48603576, 0.01721976, 0.28277454, 0.01288096, 0.09314808, -0.19051804, 0.00810564, 0.03418147, 
	-0.19565324, -0.01644673, -0.04605043, -0.15762010, -0.09245867, 0.11999479, -0.11676642, -0.02056962, 0.26080269, 0.06733686, 
	0.00298232, -0.25083333, 0.13674742, 0.48948321, 0.07280221, 0.11691133, -0.08941281, 0.12978484, 0.52907169, 0.00428339, 
	0.11571661, 0.06827293, 0.09468240, 0.30536437, -0.03036477, -0.00247961, 0.10789643, -0.07621998, 0.02187906, -0.03168345, 
	0.05309042, -0.07478169, -0.08589461, -0.10902713, -0.02481543, 0.04573324, 0.10603775, -0.08022887, 0.01095628, -0.04300623, 
	-0.01611022, 0.07351271, 0.03330025, 0.03170116, 0.03193400, 0.09977821, 0.09498601, 0.16285659, 0.17598552, 0.09729579, 
	0.09656519, 0.09686983, 0.08222665, 0.13975914, 0.13203004, -0.03441802, -0.01303098, -0.08732396, -0.08397309, -0.01096977, 
	-0.13285621, -0.14385618, -0.01275456, -0.08114401, -0.08483096, 0.00733798, -0.04584865, -0.01130541, 0.08535805, 0.08697729, 
	0.05538136, 0.02184010, 0.14690597, 0.06429841, 0.01610746, 0.01373339, 0.10979543, 0.17668925, 0.03892175, -0.09233755, 
	-0.22469842, -0.09173443, 0.19253540, -0.00623311, -0.17952944, -0.02833538, -0.26448798, -0.15397514, -0.21240221, -0.14593036, 
	-0.06950809, -0.30665603, -0.24142636, -0.39850616, 0.03689234, -0.08152884, -0.12622809, -0.08107507, -0.16957229, 0.22545950, 
	-0.32841665, -0.24563901, -0.06469259, 0.05743738, 0.06039528, -0.13291568, -0.20524709, -0.03022064, -0.13234267, -0.03223179, 
	-0.13467707, -0.14230815, 0.13250545, -0.08863205, -0.00239331, -0.02801354, -0.10222594, -0.12327798, -0.26297134, 0.06576801, 
	-0.10536160, -0.03202648, 0.12374040, 0.04620425, 0.12300683, -0.15625155, -0.00382227, 0.02317869, 0.15148978, 0.12619530, 
	-0.05214176, -0.06730228, -0.26596031, 0.17570470, 0.01969645, 0.20047699, 0.05835034, -0.19202259, -0.38802108, -0.18348147, 
	0.28671062, 0.37696475, 0.30920810, -0.06965936, 0.07920692, 0.19411910, 0.02255926, -0.08038945, -0.17888810, 0.18254589, 
	0.09608375, -0.31338066, -0.47759640, -0.19780985, -0.11732824, 0.13414691, 0.03752468, 0.08634524, -0.19183618, -0.05751818, 
	-0.09623141, 0.00582318, -0.40842602, -0.45902368, 0.10048285, -0.25099429, -0.48084611, -0.81015342, -0.19200738, 0.14467579, 
	-0.17910449, -0.52343816, -0.28137183, 0.33368725, 0.15905996, -0.01658084, -0.50028288, 0.12852256, 0.26372123, 0.07626408, 
	0.00111848, 0.09090698, 0.17153007, 0.20369224, 0.13919072, -0.04530581, 0.05839895, 0.19966818, 0.16237468, 0.04386446, 
	0.02821767, 0.03958817, 0.03956827, -0.12829244, -0.00248271, 0.00661175, 0.02466508, -0.12520577, -0.23905933, 0.05029688, 
	0.02456610, 0.05296414, -0.26216424, -0.21192929, 0.15767179, 0.09151559, 0.01207658, 0.03076219, 0.12076652, 0.02568373, 
	0.12828492, 0.10808469, -0.02514461, 0.17027201, 0.16056414, -0.04940611, 0.02321441, -0.10089185, -0.09858008, 0.02346541, 
	-0.12043651, -0.14337292, -0.24771163, -0.15369877, -0.05579588, -0.23707868, -0.27445012, -0.26955935, -0.09718890, 0.08866127, 
	-0.22587606, -0.28547212, -0.49605328, -0.14607099, 0.20155139, -0.21148491, -0.19136935, -0.30798170, -0.01494724, 0.06017445, 
	0.19618942, 0.29963696, 0.60540068, 0.75780767, 0.39751860, 0.20682190, 0.29098547, 0.51886541, 0.42282537, -0.01546472, 
	0.00338541, 0.20172004, 0.06195266, -0.29766077, -0.27191046, -0.24635741, -0.29318744, -0.41226038, 0.03318705, 0.09449980, 
	-0.05923893, 0.00383189, -0.02778887, 0.06710084, -0.06618143, 0.24062435, 0.36018449, 0.50133276, 0.57593870, -0.05362162, 
	-0.02481649, 0.12968878, 0.16562362, -0.02587114, -0.28774509, 0.08456295, 0.04688518, -0.32446879, -0.39777946, -0.24158864, 
	-0.10160723, -0.03556893, -0.24962910, -0.37894988, 0.07303210, 0.07449164, 0.08564290, -0.02127552, -0.41840461, -0.33387029, 
	0.02009087, 0.08541364, 0.08717396, 0.13996777, -0.19203714, 0.12317837, 0.09223545, 0.06229831, 0.22245775, 0.11933976, 
	0.07957867, -0.01770976, -0.00896023, 0.24643910, 0.14982824, 0.03559790, 0.06102288, -0.22551693, -0.35337779, -0.17074651, 
	0.04094070, -0.02913059, -0.34689164, -0.44882789, -0.06816669, -0.01793034, -0.18602905, -0.18387257, -0.32555556, -0.23213087, 
	-0.08342209, -0.15874945, 0.10861342, 0.04023205, -0.12417950, -0.07960714, 0.00249855, 0.17481644, 0.19080284, 0.00085115, 
	0.07485063, 0.01069809, -0.02333260, -0.01459808, 0.02223676, 0.09855098, 0.03220892, 0.08341917, 0.07123733, -0.07423661, 
	0.12814052, 0.07804556, 0.08399981, 0.08191731, 0.03931755, 0.06400140, 0.06897520, -0.07897107, -0.08494242, 0.02050925, 
	0.10162243, -0.07275736, -0.05001196, -0.06970728, -0.08691939, 0.11034245, -0.04930179, 0.01166038, -0.02421986, -0.11603373, 
	0.15034585, 0.15133262, 0.05871592, -0.11632525, -0.02845215, -0.01210318, 0.14401372, 0.07247194, -0.13323094, -0.09843946, 
	0.02095525, 0.07311745, 0.03054188, 0.01745298, -0.10309242, 0.02905381, 0.06383914, -0.02978561, -0.00769286, -0.11662533, 
	-0.23394133, -0.37225676, -0.31941211, -0.30012742, -0.10481329, -0.14437503, -0.18869770, -0.13787815, -0.24343933, -0.16809230, 
	-0.14938357, 0.09472840, 0.09762646, 0.08257928, -0.07731988, 0.16381906, 0.22396331, 0.28458008, 0.18474783, -0.03164015, 
	0.07829852, 0.26078492, 0.07136992, 0.04318682, -0.07064531, -0.20969683, -0.16737889, -0.17940603, -0.02613245, -0.05206412, 
	-0.08869123, -0.05508274, -0.01273052, -0.05294919, -0.22692394, -0.06256113, 0.21290159, 0.22421981, 0.12909174, 0.06078467, 
	0.10868479, 0.21716316, 0.11334010, -0.02881701, 0.12420241, 0.12672283, 0.07425549, -0.05222533, 0.02899534, 0.04892938, 
	-0.06502689, 0.01933693, -0.03675301, 0.04615585, 0.21111040, -0.16780221, -0.01941284, -0.02673413, -0.01632885, 0.23367751, 
	-0.43273020, 0.23744380, 0.15174390, -0.26942298, 0.08194991, -0.21928494, 0.26765737, 0.18749437, -0.16351305, -0.06852067, 
	-0.11797659, -0.06340712, 0.08557823, -0.05682539, 0.00699009, 0.05593983, 0.30010310, 0.04640814, 0.04127171, 0.04701718, 
	0.14392921, 0.45428666, -0.04389892, -0.16455837, 0.14166699, 0.20939700, 0.61196178, -0.25259420, -0.35573968, 0.03986417, 
	0.25231844, 0.38103187, -0.28989035, -0.41312432, -0.08347975, -0.04585854, -0.09926756, -0.20471941, -0.21376091, -0.15086938, 
	0.02743494, 0.07466031, -0.01434492, -0.00162378, -0.00181063, -0.03600748, -0.05722171, 0.12058127, 0.08698580, 0.09977400, 
	-0.16447039, 0.00324732, 0.06600477, 0.10806417, -0.06615862, -0.08441203, 0.06748872, 0.04293530, -0.05151226, 0.01395844, 
	-0.06326063, 0.04317069, 0.04005550, -0.04806557, 0.09124986, 0.03791087, -0.05063671, -0.03306613, 0.15464999, -0.00871542, 
	-0.08624110, -0.02591413, -0.00765324, 0.14399076, 0.11690825, 0.02137742, 0.01136093, 0.01766427, 0.03769361, 0.03159013, 
	0.12050200, 0.15142658, -0.01243592, -0.03093085, -0.02180559, 0.06270901, 0.09024095, 0.02954081, 0.05650189, -0.04222379, 
	0.03694858, 0.17939858, -0.02114325, 0.01627249, 0.11245237, 0.14621884, 0.02474944, -0.41263443, -0.02661189, 0.00634923, 
	0.08252716, -0.67526048, -0.30068246, 0.10624078, -0.12816302, -0.01387810, -0.35874590, -0.00925979, 0.05917564, -0.10896243, 
	-0.13366468, -0.06426965, 0.22180593, -0.05041569, 0.01569324, 0.01815230, -0.05885222, 0.07144615, 0.03508499, 0.03909940, 
	0.07319156, -0.20885393, 0.07067926, -0.03288160, 0.01795246, -0.10649003, -0.46220440, 0.10461013, 0.12353773, -0.00760278, 
	-0.09380623, -0.26120594, 0.25945011, 0.15941049, -0.10739997, -0.18800899, 0.05863123, 0.18042725, -0.04090536, 0.02665917, 
	0.17565648, 0.08390747, -0.01365692, -0.27565539, 0.07244793, 0.32952783, 0.09464020, 0.19766884, 0.20399408, -0.21579108, 
	-0.01100333, -0.24525358, 0.25574648, 0.38889840, 0.03595208, -0.17835405, -0.44817147, 0.13516431, 0.04271368, 0.23588300, 
	-0.05634937, -0.47389403, -0.14044543, -0.33334890, -0.07909836, 0.20705490, -0.10518145, -0.08233526, -0.07862391, -0.13969219, 
	0.03040395, -0.13301781, 0.28085858, 0.06834287, -0.21685490, -0.17335424, 0.04382536, 0.31414583, -0.02038478, -0.20310108, 
	-0.16724029, 0.08432164, 0.17232059, -0.05983579, 0.02510063, -0.17743695, -0.07032656, 0.02008031, -0.15086830, -0.03358244, 
	0.14654291, 0.07951961, 0.20978127, 0.17320095, 0.11647219, -0.02300039, 0.01076041, -0.02243155, 0.16580649, 0.15424757, 
	-0.04925011, -0.01130886, -0.12764366, 0.04962224, -0.01251402, -0.13243295, -0.12373315, -0.04227590, -0.01220805, -0.02541861, 
	-0.03732446, -0.19990963, -0.14288685, -0.12326373, -0.05618300, 0.04842792, 0.17429321, 0.10742375, 0.20340359, 0.21034376, 
	-0.09965488, 0.12315916, 0.01864796, 0.09985933, 0.19682902, -0.10057233, -0.11952130, -0.05984830, 0.18141161, 0.09476235, 
	-0.23265153, -0.03449422, -0.15395197, -0.02010065, 0.07881707, -0.13841356, -0.06427849, -0.03200564, -0.12608400, -0.08811947, 
	0.17714462, 0.02503634, -0.03852772, -0.26150519, -0.23106635, 0.03298473, 0.32973030, 0.23631029, -0.11105399, -0.10848577, 
	0.06142829, 0.29670548, -0.07375231, 0.11359739, 0.17923109, -0.11232892, 0.00705259, -0.21627860, 0.23328307, 0.14595973, 
	-0.09724702, -0.21419507, 0.01592460, 0.24762970, 0.01522926, 0.10365338, 0.12884837, 0.08267934, -0.20669140, -0.07608566, 
	0.07821154, 0.23785202, 0.07838917, 0.12385865, 0.09939848, -0.02502743, 0.10786042, -0.03416536, 0.22141632, 0.11576577, 
	-0.00646254, 0.00269740, -0.40237722, 0.09112997, -0.03003610, -0.11586048, -0.27182728, -0.07932727, 0.06726895, -0.05424924, 
	0.30936047, 0.13740239, -0.24030147, -0.41991892, -0.24485204, 0.09411111, 0.23525341, 0.08521960, -0.43506113, -0.29874933, 
	-0.25770178, 0.03852768, 0.21141356, -0.05195871, -0.26658973, -0.00285053, -0.08596446, 0.19452071, -0.04732032, -0.07424998, 
	0.10738834, -0.08369748, 0.15031803, 0.21495871, -0.21454823, 0.11821601, 0.10101467, -0.19144331, -0.32679433, -0.10968968, 
	0.15425070, 0.13731968, -0.29321805, -0.55021966, -0.14122291, 0.11153264, 0.11231853, -0.15886664, -0.64000958, 0.01671038, 
	-0.08786468, -0.19296086, 0.13440309, -0.31736061, -0.08829553, -0.07696687, -0.24639459, 0.22755957, -0.07445448, -0.20100832, 
	0.07380654, 0.06826130, 0.04888497, 0.10868337, 0.05510047, 0.07641495, 0.01159111, 0.07122263, 0.07689228, -0.06271056, 
	0.08747782, 0.11373147, 0.15395285, 0.12979655, -0.01132406, 0.02823486, 0.15069436, 0.07596800, 0.08825787, 0.06474253, 
	-0.01952242, -0.00325632, 0.02119608, -0.03310726, -0.07240692, 0.05808773, -0.07769697, 0.04310632, 0.13080601, 0.06636348, 
	0.09286708, 0.18041457, 0.03685601, 0.12545152, 0.06890716, 0.02768260, 0.23695573, 0.02626607, 0.06981967, 0.06128084, 
	-0.04834496, 0.17379868, -0.00843914, 0.01001790, 0.13693665, -0.03994409, 0.01245454, 0.13534921, 0.02167577, 0.11345878, 
	0.16125967, -0.09677903, -0.31380242, -0.32057312, -0.24085140, -0.02237155, -0.05979291, -0.23545744, -0.14276440, -0.08636908, 
	-0.34461847, -0.31254846, 0.09115440, 0.03988568, 0.00812484, -0.14135362, 0.20381030, 0.12241860, -0.05134368, 0.08686969, 
	0.13690096, 0.24520300, 0.16408664, -0.03600529, -0.05665270, -0.02613742, -0.19357853, -0.11696731, -0.14174269, -0.32992998, 
	-0.17155142, -0.18675210, -0.06497943, 0.06756531, -0.16787978, -0.36459044, -0.03231310, 0.09305952, 0.13661580, 0.00818984, 
	-0.07243967, 0.08322239, 0.01028431, 0.01218575, 0.00630256, 0.11090949, 0.27779052, -0.04112812, -0.01635642, -0.14006343, 
	0.03478929, 0.29409796, 0.18692543, -0.24014159, 0.19177498, -0.39583355, 0.16600747, 0.62542093, -0.21211973, 0.00536177, 
	-0.45283401, -0.13590297, 0.56505370, 0.02794597, -0.15423249, -0.09528720, -0.18200001, 0.06544125, -0.04487870, -0.04737359, 
	-0.05536775, 0.14854722, -0.09205796, -0.26239881, -0.14386603, -0.19003816, 0.39644727, -0.04730570, -0.36540630, 0.20317924, 
	-0.28833014, 0.39723766, 0.04369033, -0.31387717, 0.14137530, -0.48123136, 0.29813698, 0.04203363, -0.14029731, 0.07155965, 
	-0.25117373, 0.07491211, -0.07102820, -0.17634355, -0.07968032, 0.13194713, 0.11532311, -0.25922522, -0.22045353, 0.03378200, 
	-0.02595614, 0.03510761, 0.03175750, 0.09382930, -0.00831482, 0.09455307, -0.00879447, 0.08037471, 0.13600628, -0.03661039, 
	0.00234216, -0.15552275, 0.12213482, 0.08991929, -0.08001914, -0.15468058, -0.16846305, 0.05050747, -0.03778898, 0.07341461, 
	-0.15606771, -0.12295277, 0.11750307, 0.07688643, 0.01181373, 0.11065982, 0.02518735, 0.00989144, 0.02539822, 0.11366011, 
	-0.01378135, 0.16214070, -0.03025362, -0.02956441, 0.11287013, -0.23172264, 0.07157961, 0.10903803, 0.05110894, 0.02532293, 
	-0.17338520, -0.05038444, 0.11517933, 0.09229264, -0.03027659, 0.04566066, 0.02512898, -0.04125352, 0.14751829, -0.06633245, 
	0.27400407, 0.33911055, -0.34901842, -0.24025901, 0.05749622, 0.24536625, 0.29295987, -0.22036129, -0.04163143, -0.04098126, 
	0.02799119, -0.10537885, -0.18674305, -0.02323991, -0.03562006, 0.26776096, -0.07253027, -0.27398485, 0.03508832, 0.10861681, 
	0.07369914, 0.04162908, -0.04838346, -0.08315568, -0.04342284, 0.27164891, 0.05453014, -0.15176976, 0.05606797, -0.00030308, 
	0.22909084, 0.01724573, 0.06930661, 0.17048249, -0.16309252, 0.26610672, -0.36889368, -0.08967825, 0.05418978, 0.05080486, 
	0.13418145, -0.36441097, -0.19148481, 0.04279685, 0.07013007, 0.01169377, -0.18886927, -0.10454649, -0.13898943, 0.00630728, 
	-0.12673302, -0.12871350, -0.16724551, 0.21807553, 0.17653462, 0.08784239, -0.21717635, -0.24333642, -0.01829496, 0.28934577, 
	0.03693883, 0.09386329, -0.06750518, -0.43558079, 0.03581686, -0.07030102, -0.05959136, 0.17558825, 0.04277247, -0.14643539, 
	-0.07314804, -0.12763919, 0.07926071, 0.19262685, 0.06581911, 0.00677554, -0.10905498, -0.02187148, 0.10451282, 0.13336872, 
	0.01247271, -0.09881122, -0.08471916, -0.11453153, 0.05948828, 0.04813953, -0.00003699, -0.24259287, -0.41263115, -0.13906267, 
	0.01268614, -0.04496861, -0.17663322, -0.30236965, -0.24039724, -0.17626143, -0.21990976, -0.05649206, 0.02928731, -0.17263113, 
	0.10897123, 0.07826249, -0.01045763, 0.02648110, -0.01819137, 0.05633248, 0.12586343, 0.14786372, 0.03433526, 0.03519027, 
	0.07167762, 0.07552628, 0.09050053, 0.13170491, -0.02177356, 0.04131806, -0.01339348, 0.01780827, 0.09908434, 0.06859492, 
	0.00078882, 0.00408500, 0.10198756, 0.03228994, -0.02406565, -0.03163763, 0.00486890, 0.03229055, 0.04679527, 0.00760023, 
	0.05062536, -0.00354113, -0.01980265, 0.15347581, 0.07989558, 0.06720989, 0.01270998, -0.05810433, -0.02098177, 0.03163226, 
	0.12547843, 0.14440952, -0.00632850, 0.05750442, -0.06976873, 0.12057952, -0.01103449, -0.01775339, 0.03357333, -0.04017460, 
	-0.22407006, -0.04468234, -0.03274807, 0.03339924, -0.03406909, -0.16865604, -0.13786773, -0.24266185, -0.06526445, 0.06753122, 
	-0.01015076, -0.01266296, -0.11160682, -0.12329045, -0.11343540, -0.02036676, -0.01670141, 0.04507485, -0.03223569, -0.01151433, 
	0.01897755, -0.00351192, 0.11509825, 0.17354299, 0.13813081, -0.09548569, 0.01585832, 0.03752889, -0.07898735, -0.04394025, 
	-0.14063334, 0.06182551, -0.15128887, -0.04765918, 0.03968186, 0.06164143, 0.09160057, 0.01455862, -0.08142575, -0.15613280, 
	0.09574885, 0.06127771, 0.06004486, 0.14432287, -0.12511212, 0.06754170, 0.03090701, 0.02931149, 0.06549908, 0.15302411, 
	-0.25033921, 0.02217085, 0.42489335, 0.25165975, -0.11361320, -0.35229486, -0.48407423, 0.47027832, 0.51073259, -0.00674109, 
	-0.38221413, -0.84102941, 0.00963634, 0.39840969, 0.26502237, -0.18536690, -1.08409131, -0.39114222, 0.05684544, 0.19487116, 
	0.09144391, -0.74216795, -0.46229371, -0.15968451, -0.19962277, -0.23317398, -0.10354372, 0.27217934, -0.17036593, -0.05933091, 
	-0.50743014, -0.31307697, 0.29276007, 0.09928180, -0.11318280, -0.52528459, -0.47862011, 0.40370801, 0.21984707, -0.01570052, 
	-0.55799991, -0.50430131, 0.36575839, 0.00115925, 0.11602063, -0.30231017, -0.52753657, 0.06002190, 0.12335153, 0.00789857, 
	0.06410639, -0.04580002, -0.04340966, 0.08298095, 0.14212719, 0.10208037, -0.01982808, -0.15148719, 0.12368036, 0.05658641, 
	0.13965958, 0.01298509, -0.17792001, -0.02780449, 0.10364955, 0.09648462, 0.06382249, 0.03928739, 0.07868405, -0.01565647, 
	0.14349106, 0.00360252, -0.01840884, 0.05363929, 0.00695790, -0.10662070, 0.23268816, -0.04183696, 0.02164018, 0.16566703, 
	-0.14388499, -0.02493681, -0.02263243, 0.03283301, 0.20810607, -0.11821178, -0.10708740, -0.17308377, 0.12679435, 0.12476609, 
	-0.19477472, -0.14501093, -0.06757428, 0.09593493, -0.01446037, -0.16142492, -0.00440314, 0.11620123, -0.04525129, 0.08593072, 
	0.15729019, 0.28919342, 0.07899275, -0.04208864, -0.02382694, 0.21083115, 0.18858951, 0.07231175, 0.02748965, -0.00970245, 
	-0.11260470, -0.02061408, -0.09054556, -0.00672570, 0.14880918, -0.21800797, -0.04119613, -0.15343553, 0.22656335, 0.30961618, 
	-0.18466781, 0.00767965, 0.16133834, 0.22755235, -0.02199289, 0.29369503, 0.11899810, -0.08135597, -0.01023317, -0.02260138, 
	0.16980571, 0.04544174, -0.08103014, 0.12553272, 0.05912655, -0.03244017, 0.16641560, -0.30090556, 0.05397263, 0.05970275, 
	0.00514875, 0.24101004, -0.19796748, -0.03802454, 0.09314498, 0.01831376, 0.15290666, -0.05916136, 0.00969961, -0.19424480, 
	-0.02752949, -0.11873407, -0.05850914, -0.00946527, -0.06526920, -0.20148960, 0.07346305, 0.15961462, -0.23417377, -0.15279914, 
	-0.14292797, 0.19754145, -0.11809320, -0.12541647, -0.06098312, 0.06887024, 0.23128903, -0.39213607, 0.04318622, 0.25316972, 
	0.05492428, -0.06838953, -0.30679104, 0.09876085, 0.15205918, -0.06505277, 0.09257153, -0.03440605, -0.27663517, -0.04490414, 
	0.17563157, 0.34693897, -0.33471689, -0.28597006, 0.08547478, 0.49656889, 0.23778218, -0.50799888, 0.06545983, 0.21590711, 
	0.61991429, -0.18969360, 0.03179706, 0.38485664, 0.19360983, 0.32621109, -0.42425793, 0.15178302, 0.25972131, 0.00498743, 
	-0.13288666, 0.02108838, 0.02738706, 0.10837426, 0.05178362, -0.17351671, 0.08251658, 0.12225878, -0.00011219, -0.02001589, 
	-0.19841634, 0.09454898, 0.00497212, -0.03938255, 0.05019785, -0.10718302, 0.09302078, 0.03378413, -0.08026353, 0.12095269, 
	0.09548285, 0.10943192, -0.01478933, -0.03173914, 0.08571910, -0.03350841, -0.19493751, 0.03193312, 0.09415052, -0.02430450, 
	-0.05811273, -0.14527123, 0.14419837, -0.05434893, 0.01844802, -0.07362951, 0.00402949, -0.02242541, -0.00864185, -0.03053757, 
	0.02106300, 0.05514029, -0.11818588, -0.01916225, 0.06171031, 0.17180902, -0.01234258, -0.01475491, -0.08653552, -0.07577109, 
	0.20586260, -0.03543676, -0.32825911, 0.07216237, 0.28814849, 0.06154083, -0.32213375, -0.06917769, 0.27548581, 0.11237114, 
	-0.11859155, -0.52929759, 0.34911695, 0.22321114, -0.18661590, -0.37538269, -0.02019110, 0.35608056, -0.03567390, -0.09951617, 
	-0.36616313, 0.22087908, 0.21839313, -0.10993842, -0.02517669, 0.04106304, -0.23114760, -0.04815136, 0.06750855, 0.03032008, 
	-0.03414958, -0.23339599, 0.17730339, 0.12484114, -0.10077290, -0.21937513, -0.09513432, 0.26168334, 0.03834681, -0.10373565, 
	-0.35351539, 0.10647855, 0.13935269, -0.12645094, -0.04742391, -0.21314396, 0.33091551, 0.07891577, -0.19443592, 0.05454304, 
	0.13844742, 0.25991288, -0.16890402, -0.03885598, -0.02281931, 0.06076444, 0.22044495, 0.31208342, -0.31578892, -0.04539321, 
	-0.17878248, -0.19021347, 0.32465586, 0.23243284, -0.07776271, 0.13191570, -0.18674867, -0.10776191, 0.49120787, 0.19404653, 
	-0.00394056, -0.38052166, -0.49305704, 0.37219548, 0.46770719, -0.02069551, 0.02163456, -0.37197095, -0.41273668, 0.02970111, 
	0.01797870, 0.00768116, -0.36048612, -0.04308094, 0.09606212, 0.01033839, -0.25720158, 0.24922650, 0.36074024, -0.00175318, 
	0.12105016, -0.52321136, 0.39388216, 0.56265068, -0.05769562, 0.34964186, -0.13496478, 0.28567556, 0.36992392, -0.13070807, 
	-0.07315522, 0.13457824, 0.18885699, 0.13546729, -0.08705119, -0.05600559, 0.02693308, 0.09087965, 0.01342496, -0.07397939, 
	-0.07282355, -0.01466909, 0.04771380, -0.13157511, 0.04564682, -0.01451454, 0.09313581, -0.23964863, -0.03800483, 0.13843803, 
	0.04028045, 0.01312426, -0.15484673, -0.03163469, 0.04797469, 0.15540875, 0.13138729, 0.07873244, 0.03422716, 0.01996349, 
	0.11603706, 0.14973859, -0.05789768, -0.13550805, 0.07174325, -0.17186102, 0.04733448, 0.05253432, -0.21360379, 0.07789107, 
	-0.13407627, -0.27231514, -0.06868624, -0.04042842, 0.03670292, 0.00349862, -0.21938898, 0.06835013, 0.07032038, -0.02001330, 
	0.12553091, 0.12038957, -0.22452742, -0.07848538, 0.19876981, 0.04189812, 0.03774348, 0.10543872, -0.06360139, -0.14624527, 
	-0.07281316, -0.08845980, 0.26599222, 0.07073493, -0.23290838, 0.12985979, 0.10014369, 0.18290275, -0.24530688, -0.03339792, 
	-0.33928341, -0.20511675, -0.28769818, -0.39152476, 0.23509957, 0.05488594, 0.04046696, -0.01163440, 0.08852377, -0.00044817, 
	-0.07464568, 0.11708568, 0.10972438, -0.04449086, -0.13377368, -0.05734393, 0.10638508, 0.09122633, -0.07584295, 0.05662772, 
	0.06394767, 0.06308438, 0.02144727, -0.35490483, 0.21971136, -0.25299340, -0.02208218, -0.39756441, -0.12718417, 0.31954235, 
	0.35279572, 0.19512211, -0.15341650, 0.12154001, 0.14958687, 0.18192455, 0.42923543, 0.18943767, -0.08378944, 0.01480310, 
	-0.18183126, 0.28293371, 0.46137258, 0.01115808, -0.21951254, -0.30824214, -0.09601072, 0.31879520, 0.22126003, -0.19530420, 
	0.13188778, -0.12021022, -0.01798354, 0.14070387, 0.10239909, 0.15402581, -0.05788130, 0.00017899, 0.00040111, 0.12661749, 
	-0.00201453, 0.23867349, 0.12523887, -0.17530444, -0.06755239, -0.01979142, 0.27937409, 0.27949300, -0.30471107, -0.10938809, 
	-0.03047181, 0.13179567, 0.31661493, -0.02484418, -0.06330052, -0.09332415, 0.02266390, 0.08964329, -0.03318951, 0.05795338, 
	-0.05150231, 0.02997718, 0.01691623, 0.07956832, 0.07231767, -0.05566537, 0.02464603, 0.05063634, 0.07766820, 0.00388085, 
	-0.10764941, -0.09416001, 0.01766217, 0.05456661, 0.05067160, -0.11996195, -0.09818313, 0.06205705, 0.00665600, 0.00243004, 
	-0.09095457, -0.11311737, 0.02224698, -0.05523071, -0.04378395, 0.13209043, 0.02631008, 0.03362710, -0.01467421, 0.07631227, 
	-0.02860433, 0.00742546, 0.02137745, 0.13549793, 0.04084608, -0.06431992, 0.01304443, 0.04896207, 0.03736940, 0.10163181, 
	-0.14261791, -0.10662019, 0.05305180, -0.11941607, -0.04142939, -0.03250898, -0.13721536, 0.08204071, 0.00113776, -0.01887103, 
	0.03543521, -0.08207752, -0.11790168, -0.17298843, 0.00994967, 0.15411885, 0.08913394, -0.27555940, -0.35856962, -0.10389566, 
	0.00560755, -0.13214134, -0.11257339, -0.18873413, 0.05027222, -0.12384850, -0.16500728, 0.07392430, 0.02235134, -0.02698017, 
	0.17852464, 0.07721741, -0.12716004, 0.02503235, -0.05491905, -0.03535495, -0.10393731, -0.04340566, -0.04728325, 0.05228106, 
	0.10750468, -0.04494078, -0.08510450, -0.00743959, 0.06805312, -0.10622171, -0.10878220, -0.05757248, 0.08080116, 0.16315146, 
	-0.15023060, -0.29023388, -0.06653948, 0.08578290, 0.09567922, 0.03300178, -0.13449027, -0.06275798, -0.04434949, -0.04372505, 
	-0.00340698, -0.21055582, 0.02812589, -0.05652163, 0.07127643, -0.06111345, -0.02816246, -0.06048976, 0.00636846, 0.30418015, 
	-0.29381031, 0.08185557, 0.06197303, 0.07114170, 0.13493617, -0.52490151, -0.06169326, -0.28380552, -0.17084464, -0.08095120, 
	-0.17770532, -0.09739562, -0.21577619, -0.15277798, -0.19991991, -0.18314871, -0.00892406, 0.07684544, 0.09583132, 0.10471365, 
	-0.27113375, 0.35655335, -0.00219154, 0.20014302, 0.03189411, -0.00308835, 0.44439998, -0.16818398, 0.11758550, -0.03966430, 
	0.27860489, 0.54011482, -0.03139470, 0.10000201, 0.05829995, 0.17404868, 0.27006868, 0.09625306, -0.02019088, 0.00936647, 
	0.00771355, -0.00127618, 0.06885604, 0.08675479, 0.03515759, -0.00584087, -0.08723937, -0.01596405, 0.02534933, 0.07732112, 
	-0.12390512, 0.00618530, 0.14877947, -0.05415148, -0.00303837, -0.10196546, 0.10035034, 0.05105489, 0.09132377, 0.06934090, 
	-0.12480770, 0.08604167, 0.05304724, 0.00773100, 0.06468549, -0.02607237, -0.00709991, 0.03880391, 0.14385448, -0.00828398, 
	-0.07405359, -0.08939622, 0.01587934, 0.13292089, 0.06395593, -0.18444999, -0.15684934, 0.00206612, 0.00924486, -0.02387719, 
	-0.10696477, 0.03996054, -0.07805966, 0.00686247, -0.05366534, 0.00348406, -0.03661113, -0.01721635, -0.07236353, 0.08454657, 
	0.10964946, 0.09946175, -0.16807210, 0.03827735, -0.08263556, 0.25343156, 0.16818182, -0.09913740, 0.04883113, -0.06580348, 
	0.29494473, -0.09775861, 0.11493136, 0.11334459, -0.04831127, -0.06381548, -0.39686936, 0.11780979, -0.03749067, -0.17073855, 
	-0.13630089, -0.09256706, 0.10066123, -0.09630804, -0.10593711, 0.03220501, -0.15264942, -0.03481600, 0.08940032, 0.00437240, 
	0.17193334, -0.09210528, 0.11993787, 0.02094896, 0.03454170, 0.12399599, -0.36044642, 0.07609401, 0.01047110, 0.08363231, 
	-0.08792262, -0.46563655, 0.13154198, -0.22058679, -0.05895957, -0.11399325, 0.02073236, 0.19269298, 0.02954026, -0.01725385, 
	
};

// Layer: conv2_bias | Shape: (16,)
const float conv2_bias[16] = {
	0.23430113, 0.18226793, 0.05793389, 0.06526526, 0.05739893, 0.00514307, -0.03988134, -0.02598152, -0.02053847, -0.02157688, 
	0.11130884, 0.12749027, -0.04582176, 0.04251991, 0.12964417, 0.07836540, 
};

// Layer: fc1_weights | Shape: (120, 400)
const float fc1_weights[120][400] = {
	-0.00231923, -0.03973722, 0.03880910, 0.02807121, 0.02540366, -0.04949492, -0.02507199, 0.00564825, 0.00503269, -0.03243511, 
	-0.02804157, 0.04621026, -0.03246361, -0.00963191, -0.01515689, 0.03108599, 0.00609297, -0.02957073, -0.00065059, -0.02983760, 
	0.00812476, -0.04817917, -0.06870741, -0.02886021, -0.03508731, -0.01447350, -0.06244238, -0.01648719, -0.02999533, -0.03857166, 
	0.00165167, 0.03390505, -0.00876146, -0.04414191, 0.02320544, -0.00318395, 0.02237053, -0.04300936, -0.05944979, -0.03940811, 
	0.02047564, 0.03387931, -0.00963917, -0.04480330, 0.03413326, -0.01130567, -0.00393820, -0.01068271, 0.02310580, -0.04951392, 
	-0.02067309, -0.03585344, 0.02243017, 0.02252777, -0.00874846, -0.01622804, -0.01949203, -0.03926693, -0.01264260, -0.01757103, 
	-0.00565971, -0.00964921, -0.05293319, -0.02912080, -0.04208818, -0.04742591, -0.02045991, -0.01957912, 0.02936962, -0.02693189, 
	-0.02574687, -0.02633336, -0.03968402, 0.02000531, 0.00886947, 0.03901874, -0.04915426, 0.03500222, -0.03805531, 0.00754376, 
	0.00644201, 0.03126310, -0.00405428, -0.05299067, -0.00982954, 0.01350056, -0.05113462, -0.03241120, -0.03015089, -0.02700817, 
	-0.03514012, -0.00920580, 0.02568833, -0.02181034, 0.03547185, 0.00993887, -0.06646527, -0.01896725, -0.03170574, -0.02507069, 
	0.03390565, -0.02750076, -0.02829541, -0.02109530, -0.01033497, 0.03188864, -0.01439696, 0.01006015, 0.00301729, 0.01250644, 
	-0.03610639, -0.01610684, 0.02288982, 0.01305507, -0.04111073, -0.00086293, -0.02542120, -0.03390473, -0.06500685, 0.02624219, 
	-0.05594283, -0.05797423, -0.04222145, -0.07565276, -0.03499187, 0.01362061, -0.01738037, 0.02728972, -0.02304553, 0.00308288, 
	-0.00504096, -0.05490574, -0.05209279, 0.02985597, -0.03234353, 0.02524606, 0.02437219, -0.04190992, -0.04534702, -0.02660626, 
	0.02890636, 0.00196347, 0.00977890, -0.01602110, 0.00815408, -0.03285820, 0.01820154, 0.00008272, 0.01705329, 0.00110443, 
	0.02412930, 0.00678072, 0.01504799, -0.01816816, -0.04062446, -0.04692942, 0.03897230, 0.00720385, 0.01950651, -0.04161417, 
	0.02633926, -0.01075755, -0.03645053, -0.04278385, -0.01086348, 0.01121576, 0.03691632, 0.00255282, -0.01912079, -0.03990520, 
	-0.04782009, 0.03085900, -0.06010581, -0.05916239, 0.00553149, -0.03260086, 0.00622971, -0.05412405, 0.01428907, -0.04742676, 
	-0.05716469, -0.00706919, -0.02665571, -0.05367078, 0.01839695, 0.02377132, -0.02421693, -0.01276657, -0.00909452, -0.05077149, 
	-0.06243342, -0.07892582, -0.02173134, -0.05439574, 0.03176907, 0.02256336, 0.00270105, 0.00581008, -0.00363523, -0.06727578, 
	-0.02019760, -0.05124395, 0.01236280, 0.01397919, -0.00449875, -0.05066926, -0.05214236, 0.01158956, -0.04852094, -0.00042470, 
	-0.04508781, -0.01781851, 0.00593744, -0.02901386, -0.05498389, -0.02541216, -0.00849848, 0.00857329, 0.01126487, -0.00001271, 
	-0.01671824, 0.00234527, 0.04812565, -0.01639004, -0.02473364, -0.02907394, 0.00622403, -0.04477813, -0.07429595, 0.00344181, 
	0.01369674, 0.02925170, -0.02137153, -0.05313688, 0.02910114, 0.03333580, -0.00331142, -0.04703624, -0.03245117, -0.01980635, 
	0.00818547, -0.05006560, -0.00013993, 0.01340379, 0.01630574, -0.00372524, 0.02075301, 0.01952250, 0.00822309, -0.06052860, 
	-0.05320105, 0.01251758, 0.00496766, 0.00213855, -0.01832058, -0.03520917, -0.00505817, -0.00938848, -0.01146913, 0.02687658, 
	0.01256950, 0.01158056, -0.02082407, -0.00960186, -0.00367739, 0.01255300, -0.01627157, -0.02364270, 0.02846987, 0.00122287, 
	-0.03983109, -0.01063894, -0.01010009, 0.03997766, 0.00869642, -0.04245963, -0.02501901, 0.01710064, 0.01852802, -0.03061035, 
	-0.04659602, -0.00682647, -0.01954680, 0.02340345, -0.00426680, -0.05183092, 0.02167386, -0.06305209, -0.07528162, -0.00359157, 
	-0.02923628, -0.07452495, -0.01875129, -0.03855683, 0.01723482, -0.05117521, -0.04078822, -0.07741804, 0.04480003, -0.04995158, 
	-0.03527030, 0.03064043, 0.01284451, -0.02043717, 0.01103989, -0.02002833, -0.00300380, -0.04139003, -0.00779922, -0.01567379, 
	-0.00797936, 0.00012359, -0.03158521, -0.00463982, -0.05955003, -0.06325869, -0.00304240, -0.01775686, 0.01945355, -0.03347570, 
	-0.03353002, -0.03855663, 0.02248803, 0.00522905, -0.02189495, 0.02044869, -0.02741678, -0.00545376, -0.04008946, -0.02374505, 
	0.03430268, 0.03888287, 0.01786511, -0.03995967, -0.04209800, 0.02559474, -0.06192267, -0.03273082, -0.00476754, -0.01879842, 
	-0.00619279, 0.00395591, -0.07656797, -0.05894389, -0.01125276, -0.06521261, 0.01935364, 0.00028601, -0.03564831, 0.00205308, 
	0.01940880, -0.01347514, -0.05563313, 0.00235764, -0.06432590, 0.01963289, -0.04710379, -0.02991550, -0.02115324, -0.02394555, 
	0.02334643, 0.04051448, -0.02652957, -0.04301410, -0.02933009, -0.03375086, -0.04492186, 0.00967938, -0.05617869, -0.04958406, 
	-0.00405468, 0.01132902, -0.02599650, 0.01396782, -0.01495854, -0.04753946, -0.02546360, -0.01453296, -0.02570871, -0.03289771, 
	-0.05805119, 0.03214074, -0.02245315, -0.01186399, 0.00191072, 0.02344804, -0.03677436, -0.03007075, 0.02624330, 0.02281705, 
	0.00136506, 0.00879023, -0.04734718, -0.05324575, -0.03605349, 0.00329027, -0.03901326, -0.02850913, 0.01291854, -0.01500131, 
	-0.05127823, 0.00454734, -0.02288998, -0.01059966, 0.03739424, 0.03859939, 0.03275901, -0.01399788, -0.00490619, -0.05643516, 
	-0.01822658, 0.03406454, 0.03151359, -0.00196895, 0.04062622, -0.02268378, -0.05441304, -0.05272222, 0.01027418, 0.03414734, 
	0.03795791, 0.03921054, 0.00416751, -0.00139912, 0.02564211, -0.01096009, 0.02309032, -0.04659663, -0.00645242, -0.05493613, 
	-0.01970933, -0.01529437, -0.04825064, 0.03308990, -0.04975589, 0.03990556, -0.03734406, 0.03449818, -0.04982373, 0.00845726, 
	0.01868278, -0.00573866, 0.02400155, -0.04104797, -0.00493891, 0.01480684, -0.02467736, -0.05188298, -0.03788561, -0.04041871, 
	-0.00906787, 0.03624734, 0.03758430, -0.04793828, -0.02990075, -0.00924384, -0.04233574, -0.04158573, -0.05070122, 0.03844051, 
	0.03250023, -0.00094753, -0.05321807, -0.03538535, 0.00606156, -0.01056773, 0.01141305, -0.04496400, -0.02062957, 0.00864737, 
	0.01316120, -0.05262450, 0.01997641, -0.04975473, -0.02769685, -0.01028711, 0.03747783, 0.01557230, 0.00850381, -0.04724317, 
	0.00090050, 0.00850440, 0.01051814, -0.00831912, -0.05117633, -0.02725542, 0.02061243, -0.03645348, 0.00271751, 0.00247511, 
	-0.04799647, -0.01817407, -0.02340086, -0.05567607, -0.04999881, 0.00002393, -0.03174759, -0.02226445, -0.03323185, -0.02594208, 
	0.01778367, 0.02780107, -0.00090666, -0.01265491, -0.00001938, 0.00071800, -0.04689798, -0.00903251, -0.00397731, -0.03258201, 
	-0.04275205, -0.01584380, -0.03599167, 0.03668226, 0.02484357, -0.00112922, -0.00185113, -0.02051399, -0.03069510, -0.05006908, 
	-0.05282479, 0.03905635, -0.00552744, -0.04149956, -0.02021502, -0.03630820, 0.00958627, -0.00315375, 0.02020233, 0.00717975, 
	-0.01916003, -0.03524458, -0.04078896, -0.00158589, -0.03143778, -0.04237283, 0.01984606, 0.03104066, -0.00670729, -0.04978951, 
	0.01040692, 0.01207897, 0.03058475, 0.00571860, 0.02259831, -0.04796527, -0.03628664, 0.01127999, -0.04193923, 0.02707476, 
	0.01667740, 0.01234038, 0.02494538, 0.01044795, 0.00088274, -0.00992047, 0.01278079, 0.00668581, 0.01647539, 0.00913247, 
	-0.04827061, 0.01086093, 0.00538613, -0.03977070, 0.02623110, -0.05340043, -0.02870203, 0.01072125, 0.04083165, -0.04702140, 
	-0.02506689, 0.03605362, -0.03088042, 0.02770020, -0.03729120, -0.03149240, 0.01193787, 0.03600163, -0.01060782, -0.00602799, 
	0.00083025, 0.02523840, -0.01428547, 0.01925163, -0.04074645, 0.00591079, -0.03558315, -0.03352309, 0.00941358, -0.04862607, 
	-0.04352936, 0.00391227, -0.05061430, -0.00345863, 0.04122452, -0.05307627, 0.02137523, -0.00203708, 0.01945174, -0.05316121, 
	0.03643919, 0.00656615, -0.02274555, -0.00989013, -0.02567155, -0.01031834, 0.02252684, 0.01479229, -0.00379569, -0.05646432, 
	-0.05399741, 0.01103611, -0.01321148, -0.04213855, 0.03555277, 0.01264924, -0.05409819, -0.04467563, -0.02992614, -0.03444492, 
	0.00847856, -0.05586281, -0.00778122, -0.02338316, 0.02050498, -0.02982690, -0.03136714, -0.03428183, 0.03018180, -0.00908520, 
	0.02520301, -0.03296538, -0.04049351, -0.01649618, 0.02588369, 0.02543712, -0.02202291, 0.02860202, -0.02108598, 0.01770250, 
	-0.00480384, 0.01705192, -0.04973424, 0.03342940, 0.03634771, -0.02066693, -0.05312005, 0.01476885, -0.02666287, -0.05551554, 
	0.01915525, 0.04576502, -0.00013748, -0.03284460, -0.00195907, -0.02370496, -0.01425670, -0.04990475, -0.04012346, -0.03726421, 
	-0.00832673, -0.00081227, -0.03211535, -0.00951040, -0.01891446, -0.01702881, 0.02548435, -0.02324814, -0.01233917, -0.00366938, 
	0.01742259, -0.03047510, -0.04575020, -0.00719196, 0.03883307, 0.00028098, 0.00138892, 0.02525869, -0.05528184, -0.00275774, 
	-0.05265942, -0.04969439, -0.03529539, 0.01086906, 0.03595774, -0.02919450, 0.04124058, -0.04819044, -0.01958803, 0.02278514, 
	0.01137846, 0.03279478, -0.04851733, -0.01714073, 0.01870257, -0.01526337, 0.02110924, -0.04481443, -0.02128289, 0.03189132, 
	-0.02615616, -0.01183218, -0.02322033, -0.01128265, -0.05267366, 0.01171962, 0.03285001, -0.03690746, -0.02000266, 0.01851501, 
	0.01112495, 0.00548413, -0.01504906, 0.01732771, -0.01100648, -0.00874793, 0.03512002, -0.02038326, 0.02056850, 0.04055014, 
	-0.01602280, 0.00507377, -0.02112692, -0.02361622, 0.01204216, 0.02511371, 0.03649348, -0.03957071, -0.00610036, -0.02455967, 
	-0.02812203, 0.03735790, -0.00002282, -0.02339407, 0.00047260, 0.03052668, 0.00259294, -0.03804525, 0.03995879, 0.01006834, 
	-0.04009380, 0.00876717, -0.01529394, -0.01153146, 0.03687081, 0.02708124, -0.04405992, -0.02775983, 0.00088651, -0.04795320, 
	0.00542813, 0.00352840, -0.01225675, -0.03007916, 0.03429507, -0.05619728, 0.02971856, -0.00559862, 0.04125482, 0.02813352, 
	-0.03338995, -0.05663474, 0.01694031, -0.01498336, -0.00656284, 0.03496933, -0.05656052, -0.01383754, -0.03119579, -0.01414580, 
	0.03392043, -0.02237330, 0.03491741, -0.03763127, -0.02231158, -0.04900368, 0.03626514, -0.02918838, -0.04416848, 0.00392643, 
	-0.00581527, 0.03378214, -0.03667751, -0.04237289, 0.02504379, -0.03798830, 0.03141765, -0.05118787, 0.00863496, -0.01578536, 
	-0.01830680, -0.00940982, 0.03999383, 0.04079136, -0.01479636, 0.01047902, 0.03391605, -0.00783369, -0.01336848, -0.01279800, 
	-0.04011674, -0.12109313, 0.06623710, -0.07811671, 0.01334276, 0.02371150, -0.03191509, 0.00045286, -0.31118724, -0.13240407, 
	0.08010152, 0.17850384, -0.11898630, -0.18768100, 0.07965004, 0.07782845, -0.21703996, -0.13778463, -0.04988037, -0.26158166, 
	0.03092257, 0.13011657, 0.19381182, 0.00348205, -0.00921248, -0.11117322, 0.00158436, -0.00394547, 0.03517437, 0.03478698, 
	0.01204486, 0.03688103, -0.10848682, -0.03859749, -0.17832349, -0.00947743, -0.03713761, -0.02379937, -0.20177804, -0.14413333, 
	0.09616301, -0.10829262, 0.02790953, -0.06203928, 0.06595461, 0.02275156, 0.06592660, 0.01127016, 0.06599136, -0.12897535, 
	-0.00738014, 0.04824464, 0.08506080, 0.09861133, -0.07847776, 0.06282477, 0.07033113, -0.04559452, 0.18365845, -0.09512039, 
	0.00271982, 0.07333482, -0.19490500, -0.02937280, -0.15045170, -0.06112096, 0.04560227, 0.13390449, -0.34173828, -0.06103842, 
	-0.02286010, -0.00308167, 0.14351495, 0.15602528, -0.07550663, 0.07835175, 0.02151728, 0.00666175, 0.09197742, 0.10150377, 
	0.15244456, -0.01266945, 0.09576884, 0.03332699, 0.01898633, -0.00555693, -0.05526727, 0.12344699, -0.10623904, 0.04396532, 
	0.09562407, 0.01455629, 0.05018397, 0.00275887, -0.07868148, 0.02535414, -0.03966167, 0.13972691, -0.02467998, 0.00756077, 
	-0.03363494, -0.00968518, 0.06602191, -0.08451594, 0.05983947, 0.08212341, -0.02488917, -0.19640088, -0.29972661, 0.12489294, 
	0.19618136, -0.19715922, -0.35222760, 0.01860261, -0.03440096, 0.10454988, -0.29012722, 0.29407290, 0.06088626, 0.11997220, 
	0.14563257, 0.01659523, 0.14573039, 0.09197897, -0.03448446, 0.01260605, -0.03412545, -0.02178735, -0.03924904, -0.02760332, 
	0.07304148, 0.07417299, -0.17803696, -0.06385881, 0.00774693, 0.04504092, -0.17684782, -0.13170494, 0.11428332, 0.01867572, 
	0.03135727, -0.06532740, 0.14938322, 0.25719535, 0.05628543, 0.08197588, -0.01189908, 0.01330013, -0.11945292, -0.04271794, 
	-0.00966888, 0.02851848, 0.05960306, 0.09779643, -0.01757427, 0.01257594, 0.07914636, -0.01360046, 0.10370405, -0.05777156, 
	0.01700703, 0.02815074, 0.12428407, -0.03151871, -0.25083509, 0.02862265, -0.16093600, 0.02220437, -0.02537418, -0.19565520, 
	-0.04088260, -0.07084723, -0.15190107, 0.07972118, -0.03832107, 0.02737607, 0.15359631, 0.08923766, -0.08070388, -0.02342101, 
	0.07890308, -0.05887810, -0.05720136, -0.10846215, -0.05356831, 0.09209855, 0.00274441, -0.21568935, -0.25115594, -0.00965467, 
	0.08634025, 0.16197905, -0.07005833, -0.10938940, -0.16162524, 0.00323435, 0.18485028, 0.03089555, 0.18219066, -0.08253290, 
	0.07810410, 0.07691260, 0.03393311, 0.24821004, 0.01033079, 0.08567303, 0.15601002, 0.08986236, 0.25638521, 0.04474840, 
	0.01721202, 0.02551669, 0.02234167, 0.10980973, -0.06931325, -0.02779846, 0.02394431, 0.18714666, 0.11077960, 0.01656549, 
	0.10489094, -0.02860349, 0.11693932, 0.09781865, 0.05839493, 0.09152389, 0.00533239, -0.03793529, 0.17978179, -0.04023410, 
	0.09928524, 0.04752104, 0.02476718, 0.09042860, -0.23537049, -0.08627346, 0.12459008, 0.03247510, -0.30268142, -0.13460031, 
	-0.08243888, 0.05584942, -0.02307408, -0.12967826, -0.24926773, -0.15851627, 0.01818365, 0.11030735, 0.10226042, -0.13548817, 
	0.07376260, 0.12386947, 0.11574415, 0.01957216, 0.14235653, 0.06093642, 0.03495378, 0.10611038, 0.20350510, 0.18581541, 
	0.02631803, -0.03582013, 0.06365534, 0.08259204, 0.22690062, 0.14922297, 0.12095433, 0.08193221, 0.14531317, 0.13251863, 
	0.12959498, 0.17730868, -0.00338992, 0.04805751, 0.10550351, -0.05905280, 0.08751479, -0.00545183, -0.03588317, 0.07693832, 
	0.10464714, -0.06221383, -0.05298790, -0.14164901, 0.00651108, 0.07061229, -0.09700238, -0.25877088, -0.13958327, 0.03339002, 
	0.10639077, 0.12234720, -0.27657449, -0.05732104, -0.03491532, -0.03071848, 0.08871972, 0.07266306, 0.04437737, 0.11568503, 
	0.04443321, -0.01811678, 0.13675168, -0.03848599, 0.04629797, 0.05655403, 0.07882685, 0.01094181, 0.14435047, 0.03410466, 
	0.09418999, -0.05728662, -0.14245456, 0.25643098, -0.24880089, 0.06943130, -0.02796918, 0.10958392, 0.11342201, -0.09681787, 
	0.08569760, 0.05641267, 0.11479637, 0.21321420, 0.02167915, 0.09376424, 0.05273320, 0.03066793, -0.04303019, -0.15959664, 
	0.09099690, -0.04060626, -0.08792701, -0.11858907, -0.13039480, 0.12984109, 0.11013222, -0.46036285, -0.22615728, -0.04196108, 
	0.10113186, 0.06519742, 0.12457062, -0.18941209, -0.09352442, 0.02278867, 0.00466814, 0.13006206, -0.02775373, 0.03329885, 
	0.06291125, 0.11294985, 0.09590132, 0.10968409, -0.13932455, 0.14377208, 0.14106454, 0.03720033, 0.04968214, -0.13794567, 
	-0.02735294, 0.21439682, 0.08590936, -0.24752495, -0.23132956, 0.02745796, 0.05799248, 0.22752623, -0.28484064, -0.20285019, 
	-0.05682010, 0.03327009, 0.05016045, 0.11481664, -0.15299071, 0.02913479, 0.10822206, -0.04571234, -0.00017627, 0.07437067, 
	0.03401508, 0.10433584, 0.00464846, -0.04731891, -0.20318715, 0.02323176, -0.04714638, 0.00670806, -0.10346754, -0.13456751, 
	0.03840436, -0.03441378, -0.40565163, -0.22648953, -0.04041920, -0.06019764, 0.07399513, -0.03004635, 0.14150912, 0.01303430, 
	-0.00947973, -0.09169962, -0.05808102, -0.11655105, 0.00669981, -0.02136901, 0.27757359, -0.08725598, 0.10907335, 0.04874543, 
	0.07259484, 0.18594679, 0.06141221, 0.22658442, 0.00661812, 0.02694920, 0.22150148, 0.12812404, -0.01124927, 0.25550979, 
	0.02247209, 0.00882283, 0.04737433, -0.04416323, -0.02850847, 0.01568196, -0.01252719, -0.12174617, -0.05846436, -0.07917108, 
	0.00502869, -0.01738285, 0.05036626, -0.16961357, 0.13799231, 0.01175422, 0.25030345, 0.03983166, 0.19531928, 0.05720012, 
	0.09532065, 0.18133381, -0.10348079, -0.01447690, 0.03493499, -0.00804176, -0.02973897, -0.18700439, -0.14975092, 0.03359717, 
	0.09460419, 0.01182861, -0.10740788, -0.02822906, -0.04063638, -0.08597046, -0.01202491, 0.16319598, 0.01876163, -0.01022656, 
	-0.07008450, 0.08476516, 0.29343191, 0.01286675, -0.01234964, 0.00547623, 0.06399681, -0.11373910, 0.12917630, -0.00648398, 
	-0.01978344, 0.11026309, -0.18266921, -0.01053842, -0.03581293, -0.03048320, 0.06746220, 0.02416727, 0.01065611, -0.03922143, 
	0.02121893, -0.04778637, 0.04975478, -0.06426261, -0.04388676, -0.03124191, 0.04777710, 0.02971060, -0.16546996, -0.06340098, 
	-0.14196193, 0.02337191, -0.06153662, -0.08296951, -0.11192162, 0.04248447, 0.02050626, -0.05630143, -0.04415897, 0.04792540, 
	-0.10501384, -0.09753551, -0.13002178, -0.08335341, -0.09634046, 0.17029400, 0.09281915, 0.09909449, 0.05231461, -0.02563417, 
	0.11401264, 0.16763134, 0.43719515, 0.10045143, -0.00981098, 0.13731468, 0.33224764, -0.01283582, -0.04282851, 0.06252860, 
	-0.00660972, 0.01538609, 0.04533954, -0.07464381, 0.04906609, -0.03796562, -0.01328080, -0.12024055, -0.06596501, -0.08273011, 
	-0.00508675, 0.15488178, 0.11275963, 0.14953949, 0.05127236, -0.04488362, 0.21368571, 0.30930167, 0.16376586, 0.06158745, 
	0.01440074, 0.21483640, 0.14090957, -0.09697582, 0.02373410, -0.15295815, -0.14762123, 0.09763920, 0.13504939, 0.00086647, 
	0.04828011, -0.02693065, 0.09552421, 0.11932439, 0.00988636, -0.01889945, -0.09896851, 0.19836502, 0.10899749, -0.06407418, 
	0.00992271, 0.02028012, 0.30533084, 0.12065633, -0.10140482, -0.03421333, -0.04358639, 0.02276126, -0.19827527, -0.14734915, 
	0.04148625, 0.18273912, -0.05769044, -0.05000463, -0.18718222, -0.00559819, -0.12571880, 0.00526849, 0.07196156, 0.06095211, 
	-0.00108772, 0.08456623, -0.08117665, -0.04367145, 0.03618897, -0.08143774, 0.15832970, -0.02717135, 0.16203320, 0.08294265, 
	-0.03422536, 0.08556864, 0.05702656, 0.12286592, 0.05440306, -0.02874398, -0.10272592, -0.05762932, -0.03079958, -0.02435781, 
	0.02435862, 0.07248549, -0.04510587, -0.01774328, -0.01444763, -0.04510628, 0.03395535, 0.21004094, -0.10036753, -0.04200955, 
	-0.00404155, 0.15675977, 0.03573538, -0.14365987, -0.01911461, -0.03871927, 0.04457393, 0.08162482, -0.03187329, -0.03071280, 
	-0.04770710, -0.09975068, -0.08442324, 0.03474670, -0.02751809, 0.00735002, 0.01239090, 0.04764105, -0.02467074, -0.00349143, 
	0.08501614, 0.08436278, -0.08006909, -0.10342973, 0.01177055, 0.05860718, 0.09195955, 0.02231608, 0.27629501, -0.06756530, 
	0.06868199, 0.08682767, -0.02467233, 0.10262235, -0.05159457, 0.15541488, 0.20535283, -0.32750273, -0.17833646, 0.00560705, 
	0.07563663, -0.00596483, -0.00226558, -0.07265472, -0.04425292, -0.03542905, 0.03832966, 0.03370678, -0.06008579, -0.07538863, 
	0.07219984, 0.07586953, 0.04894162, 0.04793729, -0.07965134, 0.04952468, -0.04390126, 0.03055954, 0.10941394, -0.00830968, 
	-0.06179127, -0.16896795, -0.00124536, 0.03129917, -0.07279960, 0.03121252, -0.08129822, -0.03315422, 0.01747370, 0.01438832, 
	-0.06180203, -0.00840801, -0.05661047, 0.12131238, 0.14787325, -0.06436209, 0.18057127, 0.07801505, 0.16448416, 0.02216290, 
	-0.03136053, 0.01039302, -0.05338554, 0.19616598, 0.07825673, 0.11734904, -0.02062581, -0.15234409, -0.03226268, -0.03465085, 
	0.02730753, -0.05405110, -0.01397071, 0.05049725, -0.04953564, 0.05265974, -0.00330303, 0.25406203, 0.03969466, -0.04787252, 
	0.02628046, -0.00543842, 0.36425549, -0.27257374, -0.12492836, 0.19489902, 0.03156397, -0.02625215, -0.20433129, -0.13126333, 
	-0.01668609, 0.10648527, -0.09892060, -0.13232124, -0.04075107, -0.05754671, -0.12875575, -0.03303084, -0.05151717, -0.12018849, 
	-0.08842012, 0.27539393, 0.11676596, 0.03397856, 0.09502170, -0.04224351, -0.07102644, 0.09921536, 0.08190165, 0.01314308, 
	0.12200721, -0.08283199, -0.12373002, -0.11569345, 0.11961080, 0.01040136, 0.02310450, 0.17759660, 0.17163526, -0.02499236, 
	0.02076622, -0.00325937, 0.10672629, 0.13439070, 0.06685682, -0.02375457, 0.08467825, 0.07938872, -0.08074927, -0.01006504, 
	-0.04025606, 0.09140791, -0.10640350, 0.18011320, 0.03476112, -0.05046717, -0.05916515, -0.12428975, -0.02794695, 0.06632324, 
	0.05955049, 0.05837193, -0.14800605, -0.04903150, -0.03660907, -0.10929151, 0.02879224, 0.05564909, -0.04162379, -0.01158358, 
	0.09690115, -0.00566584, 0.13762820, -0.02574098, -0.10813019, -0.00023904, -0.06315227, 0.30626947, 0.14588423, -0.08166039, 
	0.06161589, 0.17188011, 0.09546778, -0.04673497, -0.13090873, 0.06087596, 0.08928376, -0.04938944, 0.03054158, -0.07907278, 
	-0.19259831, -0.15621927, -0.06383459, -0.00427451, 0.08108531, -0.04875211, 0.03542158, -0.01722760, 0.02891245, -0.06377360, 
	0.10755087, 0.08782502, 0.10221536, 0.05895568, 0.06836958, 0.13951881, 0.03365797, 0.09639603, -0.22109935, -0.00863382, 
	0.07655219, 0.18444657, -0.01405228, 0.01947473, -0.02148435, 0.01656367, 0.02147904, -0.08695479, 0.01212235, 0.02327589, 
	0.07049859, -0.12137528, -0.00525683, 0.01110382, 0.08651467, -0.10686273, 0.14476417, 0.22828256, 0.11332612, -0.03830686, 
	0.06415229, -0.03354858, -0.05808493, -0.11495683, -0.09457579, 0.01247622, -0.01433234, 0.13157408, -0.10557266, -0.03134989, 
	0.03813908, 0.04204091, 0.02568807, -0.03773510, -0.04670320, 0.01093771, 0.04915695, 0.20046549, 0.00979953, 0.00977675, 
	-0.12082308, -0.00619606, 0.09783582, 0.07372601, 0.04628444, 0.01927892, 0.07734977, 0.21756467, 0.00938802, -0.02770585, 
	0.05747605, -0.09157548, -0.06480095, -0.10934532, -0.01597628, 0.11094099, 0.07176428, 0.11331365, 0.10492671, 0.00854347, 
	0.00219029, -0.00855681, 0.22677718, 0.24024791, -0.03462289, 0.02242277, 0.05479851, 0.27242026, -0.02760881, 0.07059420, 
	-0.06424716, 0.04211614, 0.05297573, 0.03133739, 0.08939033, -0.12792210, -0.03442311, -0.07929622, 0.00078766, 0.06555841, 
	-0.15494634, -0.17731993, -0.18685061, -0.00431052, 0.03214979, 0.06340875, 0.06829084, 0.03318524, 0.10255796, 0.22695671, 
	-0.00752139, 0.13067105, 0.09238051, -0.10810091, 0.10386723, 0.24115425, 0.36728269, 0.04009881, -0.07017899, -0.21398734, 
	0.19865040, 0.02396407, -0.19436172, 0.06341892, -0.06333378, 0.09318227, -0.09113657, -0.05896079, -0.13023478, 0.07091469, 
	0.03861095, 0.00955316, 0.10699598, 0.10592926, 0.05711693, 0.05906100, 0.05656890, 0.04477626, 0.04997190, 0.14677712, 
	0.08267634, 0.26527634, 0.22769655, -0.01503600, 0.14042710, -0.01169764, -0.15999550, -0.09269010, 0.18985017, 0.05841957, 
	0.03708955, -0.01561399, 0.03872982, -0.00707003, 0.10156666, 0.11503710, 0.03357150, -0.05444115, 0.18462166, 0.18958688, 
	-0.00654359, -0.03775088, 0.14268544, 0.16270077, -0.01791867, 0.01713515, -0.03271492, 0.13654448, -0.01365350, -0.14881226, 
	0.05003761, -0.11764929, -0.04597837, 0.00407266, -0.16645111, -0.08694694, -0.16672654, -0.08608091, 0.01774967, -0.08339289, 
	-0.01643999, 0.13381793, -0.13133694, -0.16866523, -0.03591903, -0.20381078, 0.09304540, -0.02482403, -0.08827507, 0.03578881, 
	0.02596095, 0.08847439, 0.04132268, -0.08514138, -0.06172981, 0.02882089, 0.03120394, 0.21482657, 0.09101562, -0.08209358, 
	0.09070025, 0.12202000, 0.09415130, 0.07648946, 0.07622742, 0.04323067, 0.07191531, 0.03945139, 0.13769338, 0.02641046, 
	0.05462904, 0.07263473, 0.16770747, 0.18131250, 0.05748908, 0.13401631, 0.12346260, 0.08289796, 0.10429961, -0.00988093, 
	0.09839224, -0.10928179, 0.09121801, 0.14030573, 0.05375537, -0.07106625, -0.15805736, -0.02106732, 0.01096938, 0.00972213, 
	0.00996892, -0.00212279, 0.02486649, -0.16400038, 0.10481871, 0.00327365, 0.15448421, 0.02823972, 0.10008853, -0.00459443, 
	-0.08527622, -0.08187587, 0.15974221, 0.00398757, 0.00681791, 0.05882278, -0.08207970, 0.00159739, 0.06830689, 0.11966637, 
	0.08061008, 0.11153935, 0.05342000, 0.05960225, 0.09209927, 0.05484345, 0.07653923, 0.08938371, 0.00816791, 0.04656822, 
	0.07262207, 0.17297833, 0.22773558, 0.02426374, 0.02746131, 0.02726626, 0.09919929, 0.17680874, 0.14156389, 0.06854752, 
	-0.06347744, -0.05793808, 0.04885107, 0.02837689, 0.09459823, -0.13417186, -0.05689108, 0.03118344, 0.02123442, -0.04084651, 
	-0.04432829, 0.03715379, 0.01452962, -0.04721506, 0.06576686, -0.12667404, -0.02114724, 0.10162356, 0.06403604, -0.02971370, 
	-0.05418728, -0.03702897, -0.00978949, 0.04178101, 0.06281885, -0.06258327, 0.05481941, 0.13587713, 0.09346624, 0.07794674, 
	-0.07988920, 0.03205970, 0.04407261, 0.11286136, 0.07775094, 0.01239230, -0.02478035, 0.23737358, 0.18222761, 0.06549855, 
	-0.03030673, 0.07762554, 0.09897254, -0.10811353, -0.15354846, 0.16794728, 0.21329327, -0.02878962, -0.11832522, -0.14756216, 
	0.06351440, -0.15220959, -0.23194067, 0.04055469, -0.10332555, -0.07307847, -0.15929967, 0.02228861, -0.08479549, -0.06070719, 
	-0.10036492, 0.07274332, 0.25644508, -0.10419381, 0.02496675, -0.09394845, 0.16209736, -0.03527231, 0.01307734, -0.01128314, 
	-0.00249958, -0.02917604, 0.12377216, 0.01807548, -0.04770495, -0.06930976, -0.18668188, -0.01511914, -0.04451963, 0.04431837, 
	0.13531005, 0.03019448, 0.08883836, -0.04143053, -0.01913335, 0.11633645, 0.05168955, 0.02603117, -0.06709323, -0.08339398, 
	0.01492923, 0.05416564, -0.01627901, 0.06760598, 0.01029286, -0.04397279, -0.15884976, -0.03507001, 0.03901670, 0.03694038, 
	0.00620954, -0.19115050, 0.02663360, -0.12655352, -0.02518195, -0.00585482, 0.01232553, -0.08967030, -0.11296550, 0.05143925, 
	0.06055201, -0.05045026, -0.03612966, -0.09638656, 0.02965699, -0.08985896, -0.04191797, 0.18094923, 0.11725745, -0.06914295, 
	-0.10178706, 0.25012979, 0.10209215, 0.01655495, -0.16961664, -0.00441677, 0.14798610, 0.06552170, 0.01051478, -0.03710346, 
	-0.04988770, 0.00790922, 0.01051299, 0.02203903, 0.03177675, 0.01922198, -0.02762790, 0.01401310, 0.01036982, 0.01545978, 
	-0.00966135, 0.04423767, -0.03880249, -0.04159375, -0.00650942, 0.02495944, -0.02045042, -0.01659715, -0.05366434, -0.06229296, 
	0.03516035, -0.05129298, -0.05411151, -0.01064387, -0.01896564, -0.02882673, -0.06151464, -0.03404301, -0.01886446, -0.00139539, 
	-0.01506379, 0.00953061, -0.00975992, -0.06065546, -0.05111198, -0.04390189, -0.01400584, -0.05975144, -0.01015146, -0.02591843, 
	0.02731755, 0.03074650, -0.04799129, -0.05493446, -0.01210642, -0.02935250, -0.01839751, -0.06472533, -0.01395996, -0.03993543, 
	0.02001915, -0.05711900, -0.05367548, 0.01468190, -0.04202472, -0.04989662, -0.03473521, -0.02359465, -0.03712192, -0.00928479, 
	-0.02127457, -0.02839455, 0.02111341, 0.01014016, 0.01846920, -0.05771874, 0.01959391, -0.06504174, -0.06136480, -0.05932919, 
	-0.02360034, 0.02913924, -0.02134115, 0.02985633, -0.00744925, 0.03266474, -0.05846241, 0.00276498, -0.01275599, 0.03159950, 
	-0.05993135, 0.00789478, -0.05377335, 0.00926407, 0.02322244, -0.03388460, -0.06212566, -0.03882372, -0.01972334, 0.00739484, 
	0.02338655, -0.02364632, -0.03820655, -0.00843870, -0.03543722, 0.00501730, -0.04553834, -0.05241332, -0.02465748, 0.00839829, 
	0.03004557, -0.04962559, -0.04245309, 0.00211369, 0.00841376, -0.05916559, 0.01627121, 0.02029249, -0.04227736, 0.00137794, 
	-0.02840172, 0.02788481, 0.01164251, -0.00376540, -0.00946358, -0.03334045, -0.01183593, -0.02598654, -0.06468949, -0.06447756, 
	-0.02112786, -0.02721400, -0.05419344, 0.01176225, -0.03667210, 0.01943531, -0.02798768, -0.02323278, -0.00529908, -0.00502318, 
	0.01316090, -0.04565024, -0.06208679, 0.02002430, -0.00294000, 0.03377450, 0.02317915, -0.05836785, -0.01041714, 0.02059265, 
	-0.03602584, 0.02694220, -0.01007423, 0.03055199, -0.01059352, -0.02759800, -0.03515146, -0.00344224, -0.00262881, -0.05164141, 
	0.00981413, 0.03392400, -0.03213592, -0.02473886, -0.00066546, 0.01638924, -0.01565462, -0.04761306, 0.00139138, -0.06223131, 
	-0.05390432, 0.01105863, -0.00573796, -0.04103310, 0.01830744, 0.02311683, -0.00985781, -0.00452861, -0.04496436, -0.01965382, 
	-0.00543010, 0.02183228, -0.06130142, -0.06417512, -0.05078033, -0.00508231, -0.02208836, -0.01336802, -0.03061490, -0.02415090, 
	-0.03940440, 0.00006779, -0.06302909, -0.05972452, -0.05000054, -0.06104079, -0.02173971, 0.03410453, -0.00229763, -0.02762521, 
	0.00502010, -0.03102007, -0.06401370, 0.01353680, -0.05651992, -0.05550145, -0.04577399, 0.01216101, 0.00895937, -0.02314882, 
	-0.04393606, -0.04152759, -0.00015772, -0.05446352, -0.06189168, -0.02196717, -0.00398396, -0.02292987, -0.00627216, -0.04707765, 
	0.03083977, -0.02390238, -0.03574032, -0.05142657, -0.04515926, -0.03114621, -0.01587600, -0.03086390, 0.00707691, 0.01383824, 
	0.03417512, 0.00499472, -0.06454434, -0.02468031, 0.02907340, -0.03972054, 0.01173394, 0.00941121, -0.04244282, 0.01974017, 
	-0.02802361, -0.01521092, -0.04581500, 0.02931165, 0.01793385, -0.00036328, 0.03134657, -0.01766450, -0.03474701, -0.04738434, 
	-0.06527504, -0.01874719, -0.04353008, -0.05168466, 0.03358191, -0.03798817, -0.06344431, -0.05891591, -0.01385846, -0.02888726, 
	-0.00075704, -0.04752874, -0.04900876, -0.00457315, -0.02194747, -0.01817607, -0.05282818, 0.03146137, -0.04924307, -0.05086456, 
	-0.00797643, -0.03672213, -0.01955474, -0.04076751, -0.01735197, 0.02672200, -0.00774559, -0.02859656, -0.04068665, -0.01391033, 
	-0.04814056, 0.01777721, -0.06300388, -0.04617151, 0.02613712, 0.02681836, -0.06236193, -0.03265412, -0.02792926, -0.05452102, 
	0.00455282, -0.02936093, -0.02355245, -0.04912376, -0.00021727, 0.00428019, -0.00464540, 0.00567757, -0.00931851, 0.01615607, 
	-0.05283500, 0.00734216, -0.01340930, 0.01103690, -0.05000699, 0.02606095, -0.01859471, -0.04647556, 0.00514908, -0.02379736, 
	0.02212935, -0.01695630, -0.03271253, -0.06346416, -0.00350153, -0.04055500, 0.00170316, -0.03267512, -0.05945710, -0.03408387, 
	-0.02205617, -0.00975438, -0.01065907, 0.00354191, -0.06395366, -0.03024868, -0.05058399, -0.02080655, 0.00963114, -0.00902498, 
	-0.03040820, -0.02134018, 0.02565300, 0.02772907, 0.01411634, -0.06394276, 0.02369508, -0.04960242, -0.04485136, 0.04743548, 
	-0.06072466, 0.00984615, -0.02532828, -0.06307370, -0.00701724, 0.03179054, -0.04204557, -0.03045670, 0.00369412, 0.01359019, 
	0.03422433, -0.05855590, -0.02177709, -0.00838706, -0.04050697, 0.01157859, -0.04119501, -0.06058519, -0.03686914, -0.01640575, 
	-0.05980066, 0.01400589, -0.00958642, -0.05566720, 0.01868922, -0.02731963, -0.01297800, -0.02073049, -0.03690431, -0.01567749, 
	0.02923219, 0.01092121, -0.00412643, -0.05852964, -0.03068977, 0.02940116, 0.03023239, 0.01689409, 0.02952852, -0.00086165, 
	-0.04389990, -0.02528433, -0.00809098, 0.02129930, -0.02809176, 0.03381286, -0.05761279, -0.00055514, -0.01892291, -0.03559462, 
	0.00547494, 0.02597457, 0.02237188, 0.00200367, 0.00809061, -0.02680040, -0.05559445, -0.06298261, 0.02533638, -0.03169394, 
	-0.00182354, -0.00022177, -0.01917648, -0.06468885, -0.01819366, -0.04215284, -0.01712838, 0.02165834, 0.02458999, -0.00729171, 
	-0.00007638, 0.06089407, 0.12192234, 0.06462570, -0.07496812, -0.13893192, -0.22045328, 0.02294297, -0.31617266, -0.15154122, 
	-0.01826515, 0.22414419, -0.07698990, 0.05421155, 0.11940084, -0.00676000, 0.13601932, 0.01390538, 0.06532609, 0.00427115, 
	0.02298092, 0.17112890, 0.11182853, 0.04967989, 0.12883781, 0.00648285, 0.06596035, 0.03915485, 0.12993135, 0.10089180, 
	0.12993778, -0.01009724, 0.05207676, 0.35166863, 0.08118431, -0.00715572, -0.02664644, 0.36342302, -0.15483645, -0.01186383, 
	0.07543435, 0.24055585, 0.20677814, -0.05412224, -0.12451759, 0.02819147, -0.02378754, 0.13501105, 0.27445969, 0.08384436, 
	0.11696221, 0.03090162, -0.00004306, 0.08928784, 0.02479481, 0.10957669, 0.06266219, 0.16884896, 0.05859002, -0.04034596, 
	-0.07078622, -0.20022297, 0.10423370, 0.08374529, 0.01439097, -0.05037892, -0.00368718, 0.08005840, -0.14735150, 0.09252556, 
	0.05316601, 0.00292727, -0.35472298, -0.20751557, -0.07567021, 0.06138597, 0.04298884, 0.00442843, 0.11356201, -0.01338916, 
	-0.01442137, 0.17968661, 0.10954326, 0.08595252, -0.03733149, 0.03898540, 0.08512685, 0.07578184, -0.04376519, -0.03001157, 
	0.13825072, 0.04478943, -0.17580055, 0.02223279, -0.01669588, 0.15186895, -0.13112721, -0.12782285, -0.06282215, 0.12974605, 
	-0.03080547, 0.01446612, 0.15682197, 0.13145378, 0.04990700, -0.05541091, -0.06634597, 0.06006980, 0.06823827, 0.14041841, 
	0.08619171, 0.20256330, -0.04587172, 0.01533055, 0.11887051, 0.07452942, 0.16088420, 0.03087432, -0.19653109, -0.02987128, 
	0.07482705, 0.11404078, -0.06788611, 0.08500896, 0.10250831, -0.01728394, 0.03385285, 0.05211328, -0.00080122, 0.06132962, 
	-0.01043218, -0.00512416, 0.13297942, 0.04138172, 0.09744101, -0.06129830, -0.03864371, -0.03060029, 0.10061368, 0.07284202, 
	-0.01075801, -0.08475526, -0.08522645, -0.19168684, -0.08536348, -0.02091117, -0.09539303, -0.00663426, 0.10037474, 0.12279859, 
	0.08257447, -0.05589955, -0.06867345, -0.06794440, 0.01417850, 0.01356308, 0.10427664, -0.03409195, 0.19849429, -0.03399249, 
	-0.00772878, 0.01664704, -0.03624579, -0.00721893, -0.05002465, 0.04584658, 0.23374982, -0.02898899, 0.01493002, -0.04323677, 
	0.05274679, -0.11820843, -0.22396325, -0.18085425, -0.04994616, -0.01221068, -0.02721363, 0.01080051, 0.03009641, -0.06522333, 
	-0.03721095, -0.05729037, 0.06048193, 0.06493665, -0.03911226, 0.02856527, 0.04643200, 0.29899576, -0.05008547, 0.13163079, 
	-0.11369064, 0.06708417, -0.01186478, -0.04171486, 0.17538102, 0.01262767, -0.04808806, 0.01137789, -0.10581291, 0.02369372, 
	0.07262108, 0.03023041, 0.01424838, 0.04157184, 0.02417164, -0.01971911, -0.00823498, 0.18196136, 0.02497503, 0.13467956, 
	-0.09593815, -0.05095384, -0.05291125, 0.07446945, -0.07445877, 0.01126657, -0.15040444, -0.08927692, -0.06911367, -0.08350951, 
	-0.01121886, -0.03922342, -0.06541850, -0.03390084, 0.07672104, -0.01797748, -0.04523011, -0.11699299, -0.08659665, 0.02843308, 
	0.05865688, -0.03067865, -0.00740122, -0.09920664, 0.01040375, 0.00361795, 0.19364932, 0.11713458, -0.02685523, 0.05970508, 
	-0.07399096, 0.04865132, -0.03075309, 0.05762695, 0.25444156, -0.06056468, -0.02096723, -0.13405429, 0.00551601, 0.00266841, 
	-0.03622979, -0.01737974, 0.05313820, 0.04147569, 0.03161537, 0.04547911, 0.17082320, -0.02115096, 0.03525104, 0.06935694, 
	0.00722104, -0.03756073, -0.00895592, -0.17975222, -0.08735669, -0.00579786, -0.04523547, -0.00236318, -0.08092200, -0.02216761, 
	0.02059266, -0.02124067, 0.02696045, 0.05068668, 0.09291329, -0.03324385, -0.04295605, 0.03615084, -0.09916326, 0.06793119, 
	0.02690803, -0.03422512, 0.07477815, -0.14230575, -0.12423119, 0.11174154, 0.11724485, 0.15710975, -0.18539669, 0.16045184, 
	0.09545688, 0.10205300, -0.23353902, -0.18355606, 0.21960266, 0.06072522, -0.02933587, -0.11181592, -0.14346826, -0.05624107, 
	0.03234093, 0.05126384, -0.03703584, -0.01279993, -0.04909987, 0.06124251, 0.09722951, 0.03668987, 0.13902763, -0.00395418, 
	-0.00765509, -0.02640844, -0.11023498, 0.08891457, -0.00796809, 0.03455935, 0.00773802, 0.15500695, -0.40827549, -0.01740207, 
	0.02597121, 0.01644463, -0.22489834, -0.14883749, -0.11323705, 0.00969465, 0.07399397, 0.14686702, -0.03571625, 0.01382027, 
	0.00288477, -0.02497125, 0.13068973, -0.18453403, -0.02991964, -0.07280776, 0.12792718, 0.08214717, 0.11027115, 0.16856027, 
	-0.01212796, -0.13309325, 0.16250645, -0.01316254, 0.16081685, 0.04419417, 0.00836522, -0.02839989, -0.12696421, -0.04639511, 
	0.01523576, 0.05024028, -0.03291801, -0.05851701, 0.04443143, 0.05923420, 0.01826883, 0.04277988, 0.03887734, 0.04612152, 
	-0.02949226, -0.00271788, 0.22143215, -0.03529663, -0.01690308, -0.01557680, -0.01069281, -0.21158557, -0.06283727, 0.14032692, 
	0.04437304, -0.11329130, -0.21243612, -0.12424576, 0.03192732, 0.05288908, 0.05655482, -0.00199917, -0.04982639, -0.04469437, 
	0.00962470, -0.01488185, -0.17348157, 0.00631165, -0.04809239, 0.13880362, 0.28729188, 0.18554057, 0.09747161, 0.06915067, 
	-0.06442910, 0.02994798, 0.10372826, 0.01163743, -0.02692270, 0.00992311, 0.01991186, 0.07902520, 0.09216728, 0.01145212, 
	-0.01556222, -0.05513914, -0.06513590, 0.09460356, 0.17151985, -0.11196419, -0.20597436, 0.16579509, 0.32601848, 0.09354783, 
	-0.11249584, -0.29554871, 0.20505928, 0.33491346, 0.01752924, 0.00008246, 0.16814868, 0.09995201, -0.16702245, -0.02119832, 
	0.14856036, -0.01404910, -0.05119201, 0.03903000, -0.04047975, 0.12795787, 0.06391393, 0.00765705, -0.07649632, -0.09136103, 
	0.03806705, 0.12025081, 0.00352300, 0.04575518, 0.00264781, 0.06726535, 0.02803291, -0.25273031, 0.09669225, 0.12721802, 
	-0.00564558, 0.06239720, -0.06491931, 0.06752010, 0.05304261, 0.02113046, 0.14940268, 0.12604350, 0.01980479, -0.02846201, 
	0.01812693, -0.02690390, 0.00194697, -0.08363703, 0.09106783, 0.07851840, -0.07740510, -0.25401092, 0.00724154, 0.06503430, 
	0.06402594, 0.16743232, -0.25849304, 0.16716221, 0.14921132, -0.05808744, -0.09247398, -0.05513836, 0.14348388, -0.02276422, 
	0.03904184, -0.09898280, 0.02203359, 0.08804555, 0.01283166, -0.00665373, 0.01946337, -0.03484076, -0.09130858, 0.12830368, 
	-0.01060326, -0.07088079, -0.15607895, -0.03706777, 0.02889453, 0.07557482, -0.15196209, -0.01660356, 0.03517324, 0.06229672, 
	0.02778004, -0.01608284, 0.17999338, 0.12970300, 0.00529425, -0.02233461, 0.17127275, 0.13249813, 0.23117571, 0.05868148, 
	-0.04227437, -0.00626236, 0.00354545, -0.02854508, -0.00313544, -0.09962479, -0.03488583, 0.13069275, 0.12613992, 0.04070915, 
	-0.01461324, 0.01400696, 0.21221660, -0.00752916, 0.02735936, 0.02606075, -0.18088810, -0.01334536, -0.13561712, -0.07054238, 
	0.13102724, -0.07560023, 0.05742291, -0.02424110, 0.13980463, -0.07604246, -0.01698380, -0.01781292, 0.00195460, -0.10440325, 
	0.04519092, 0.02333209, 0.12014511, -0.04946956, -0.04590448, 0.09625582, 0.19686083, -0.07183746, -0.14229749, 0.01280932, 
	0.09973692, 0.17302592, -0.12730497, -0.05001250, -0.04761683, -0.00316517, 0.01625913, 0.09593260, 0.20732568, 0.05028082, 
	0.10300364, 0.00764028, 0.01623198, 0.00455061, -0.03292409, 0.04520883, 0.11832466, -0.18270184, -0.05615792, 0.07108063, 
	0.00954192, -0.05107798, -0.30597025, 0.08185867, 0.10107659, -0.08211876, -0.15594172, -0.07996633, 0.10285951, 0.04677956, 
	0.02024573, 0.11437359, 0.07555276, 0.16784166, 0.02252116, 0.02968073, 0.02206630, -0.01885993, 0.00179491, 0.00118049, 
	0.01135842, 0.03452288, 0.04716158, -0.03103891, 0.04668015, 0.07966485, -0.06151053, -0.00541536, 0.09301713, -0.05468564, 
	-0.02179848, 0.07121877, -0.10786117, -0.02555658, -0.12754101, -0.05116330, -0.03851135, -0.04138206, -0.01527019, 0.04529335, 
	-0.06229176, -0.05059451, -0.06276180, -0.12069028, -0.13764468, 0.02863739, -0.05764521, -0.08717253, -0.00982636, -0.04912572, 
	-0.03626634, 0.03837010, -0.22036797, -0.05022094, 0.03553290, 0.01706354, 0.05984379, 0.02181411, 0.10939357, -0.00893501, 
	-0.03257059, 0.07090241, 0.06707531, 0.18535911, -0.04489619, 0.01731418, 0.00369397, -0.00115471, 0.04192887, 0.03149637, 
	-0.05831724, -0.02255861, -0.03425756, 0.09188866, 0.00837865, -0.07382158, -0.00745258, -0.08602326, 0.21538903, -0.00663579, 
	-0.06978016, 0.22755370, -0.16161144, 0.01057364, -0.08441515, 0.06666307, 0.00854601, -0.21244596, -0.13373095, 0.04449362, 
	-0.07440652, -0.11139904, -0.07883064, -0.14445871, -0.03189648, 0.00077330, -0.05949623, 0.05274334, -0.01430506, -0.07673603, 
	0.01695635, 0.06286915, 0.00220008, -0.10362475, -0.03481724, 0.07421454, -0.02018703, -0.00468488, 0.05729024, 0.00965712, 
	-0.00581177, 0.09286630, 0.03359618, 0.19143462, 0.08419754, -0.03070903, -0.05016249, -0.04070755, -0.03945915, 0.01294652, 
	-0.01604524, 0.05594449, 0.06976731, 0.09863450, 0.04452501, -0.00514421, -0.04253779, 0.08568883, 0.13476905, -0.11358723, 
	-0.05847387, 0.03503975, -0.08210571, 0.06368506, -0.03646256, -0.05410550, 0.00144989, -0.15584326, -0.07221942, 0.04844565, 
	-0.00078054, -0.00037520, -0.01925020, -0.04606327, 0.05200502, 0.01385993, -0.13138947, 0.07144764, 0.01527885, 0.14254361, 
	-0.09153875, -0.08732022, -0.16139457, 0.02220709, 0.11237092, -0.06245896, -0.07266507, -0.12472378, 0.19189994, 0.04678018, 
	0.07989193, 0.04182200, 0.13510340, 0.11476194, -0.03893468, -0.00602231, -0.08719148, 0.00531893, 0.05345167, -0.01246480, 
	0.13721825, -0.11861312, 0.07447840, 0.16938476, 0.05280986, 0.04137028, -0.09048073, 0.00069035, 0.07815111, -0.07860187, 
	0.07641940, 0.14113399, 0.00582214, -0.06841318, -0.05760986, 0.06014318, -0.09520160, -0.00015092, -0.10077459, -0.05863019, 
	-0.00920141, -0.03655266, -0.00789784, -0.02268565, 0.03348378, -0.03978872, -0.00515157, 0.01125043, 0.06902926, -0.04340390, 
	0.01052579, 0.00140860, -0.10698481, 0.20203173, 0.05647027, -0.04329451, -0.02316488, 0.11813430, 0.02792000, -0.01379585, 
	0.09176987, 0.04393998, 0.09009797, 0.03051065, -0.03903524, 0.05903494, -0.02824372, 0.04858128, 0.00229262, 0.11107960, 
	-0.05987316, -0.04459610, -0.09012380, 0.07096964, 0.09747384, 0.03741977, -0.00030807, -0.14664815, 0.08654478, 0.13360143, 
	0.14359862, 0.06017293, -0.10816419, 0.06778670, -0.07778019, 0.10352968, 0.15386239, -0.04885268, -0.01348814, -0.03700392, 
	-0.05642082, -0.07128015, 0.05237791, 0.05449435, 0.12475302, -0.12081339, -0.26575276, 0.08282586, 0.09147120, -0.00730254, 
	-0.09155086, -0.10483948, -0.00845466, -0.11244743, -0.00253115, 0.01778578, -0.16283618, -0.00175841, 0.02102559, -0.17855546, 
	0.17998892, 0.12542935, 0.22733766, 0.12799275, -0.02471586, -0.18358047, -0.04970625, 0.09352186, 0.01299681, 0.07282759, 
	-0.02482482, 0.15497102, 0.20279981, 0.09987807, -0.01164978, 0.07735036, 0.04492954, 0.01776710, -0.03948789, 0.01182069, 
	-0.00871643, -0.07431903, -0.02115565, 0.23123017, 0.11711187, -0.00153078, 0.04032202, 0.15594144, 0.15575056, -0.20107020, 
	-0.02202122, 0.04971429, 0.21552165, 0.05366720, 0.10583645, 0.08392793, -0.09353553, 0.05078379, -0.01113551, 0.05052305, 
	0.06174228, 0.02018082, -0.26798260, 0.04093269, -0.01045522, -0.00649499, -0.26725832, 0.07217115, 0.00297056, 0.01786054, 
	0.09982970, -0.20703909, -0.04610328, 0.40376231, -0.01004509, 0.06276687, 0.07450675, 0.10015387, -0.01135714, 0.04289179, 
	0.15715225, 0.15236132, -0.06386497, 0.03923453, 0.00167213, 0.09206738, -0.08481552, -0.07687369, 0.18487710, 0.07601830, 
	-0.04120388, -0.00799111, 0.05390159, 0.12239721, 0.14641154, 0.05656946, 0.08682008, 0.12973338, 0.04099116, 0.03837932, 
	-0.10695831, 0.07765617, 0.03896854, 0.01543130, 0.01804722, -0.06226733, -0.02222419, -0.00732744, -0.11597441, -0.16611211, 
	0.12872724, 0.02402058, -0.17717621, 0.02008185, -0.14070143, 0.01832214, -0.21164142, 0.26208436, 0.03481529, -0.20040217, 
	0.05471192, 0.00291773, -0.05639231, -0.12744141, -0.18857047, 0.03497715, -0.00927896, 0.02703755, 0.04311613, -0.07041707, 
	0.16978630, 0.02246231, 0.09778512, -0.08681614, -0.05381092, 0.12574439, 0.04039758, -0.20205377, -0.01051253, 0.05359561, 
	0.10443080, 0.01370293, -0.15590903, 0.03566898, -0.00364516, 0.04665488, 0.05687733, -0.00511124, -0.02665867, -0.02651018, 
	-0.01136813, -0.02033313, 0.04909177, 0.01272406, 0.00890515, -0.01381449, 0.09080462, -0.05429436, 0.07731379, -0.03980680, 
	0.00903844, -0.00510164, -0.29944155, 0.00439398, -0.17275552, 0.04151906, -0.23255076, -0.13685377, 0.09727722, 0.01741494, 
	-0.03134029, 0.08765030, -0.29659474, 0.24776329, 0.09618301, -0.01623096, 0.04976741, -0.03517031, -0.11449809, 0.01648946, 
	-0.08700640, -0.04921368, 0.11288793, -0.05865910, 0.05890732, -0.01510770, -0.10859326, 0.02231817, -0.06951127, 0.00117177, 
	0.03238210, 0.05775894, -0.07931925, -0.12911549, -0.19618738, 0.03464466, -0.01192369, 0.04673941, 0.10762648, -0.15630703, 
	0.10920154, -0.03941920, 0.01068680, 0.08525188, 0.04268676, 0.10149004, 0.06610724, -0.02425251, 0.13201162, 0.06435394, 
	0.02728417, -0.03060143, -0.08828583, 0.35643408, 0.15316866, 0.01483720, 0.00656225, -0.08451921, 0.14055991, 0.03629060, 
	0.11968292, 0.02941720, 0.08698440, 0.12341451, 0.07715274, -0.02867548, -0.05246991, -0.06618904, -0.03679131, 0.07598673, 
	-0.10326664, -0.13738467, 0.18768938, 0.16555391, -0.13118309, -0.05599328, -0.28530142, -0.10957476, -0.05439731, -0.00605369, 
	0.09733280, -0.07471193, -0.22751150, 0.07969771, -0.02788340, 0.12145688, -0.07367314, 0.07209604, 0.15250401, -0.00903332, 
	0.06343419, 0.03404609, 0.06073385, -0.00030482, -0.04312944, 0.14440906, 0.09706636, 0.13026781, 0.06129241, 0.03547847, 
	0.15318231, 0.11950073, 0.04023645, 0.00571796, 0.16849557, 0.20344488, 0.13094476, 0.06919326, 0.02675963, 0.11453916, 
	0.05091085, 0.21802564, 0.11375230, 0.10154296, 0.08064682, 0.06763266, 0.19051102, 0.04242943, -0.15572158, -0.05489051, 
	0.08578155, 0.02958534, 0.03341835, -0.13762332, -0.04314463, 0.04259633, -0.16997117, 0.01051393, -0.09526944, -0.07829864, 
	0.03460464, 0.08133308, -0.07227191, -0.07428987, -0.07462645, -0.06615138, 0.08051217, 0.12272834, 0.09226206, -0.10720742, 
	-0.00971375, 0.13594872, 0.13426362, 0.17707786, -0.06182931, -0.08437157, -0.01563702, 0.03321301, -0.04888476, 0.12605742, 
	-0.08245375, 0.06966407, -0.28508723, 0.15301639, -0.00719697, -0.00737234, -0.17034535, -0.00447939, 0.13429730, -0.01463058, 
	0.06049398, -0.10792092, 0.06366750, 0.09699762, 0.02839786, 0.00625663, 0.20005246, 0.09895136, 0.12703502, -0.09906770, 
	-0.03419522, -0.11590420, 0.09095904, 0.03833576, -0.00284168, 0.01421645, 0.00774191, -0.10386218, -0.00499889, 0.04999612, 
	-0.17713469, 0.10804033, 0.33190736, 0.12076992, -0.18100284, -0.10622202, -0.03893262, 0.20191571, -0.15066230, -0.16573958, 
	-0.10823783, -0.06185421, 0.02452699, 0.05595028, -0.02132158, 0.00148050, -0.05316338, 0.16726927, 0.16636316, -0.00535525, 
	-0.05843322, -0.10401660, -0.12102045, 0.11504839, 0.05277337, -0.08057255, -0.07624494, 0.15926260, 0.11129949, -0.05863855, 
	-0.06200681, -0.16914186, 0.01447575, 0.34531939, -0.01676893, -0.03247018, -0.04484348, 0.06681075, 0.09995057, 0.22106217, 
	-0.14180826, 0.05660412, 0.13545610, 0.05258030, -0.00718327, 0.01285755, 0.00149277, -0.23434089, -0.07114872, -0.06045989, 
	0.16169979, -0.00486039, -0.15319166, 0.04318183, 0.12377456, 0.10426259, 0.13798085, 0.06553461, 0.13842192, 0.02945051, 
	0.02053045, 0.02416524, -0.05196832, 0.04404228, 0.14745255, 0.00532859, 0.03178741, -0.03182388, 0.06732433, 0.00388030, 
	-0.17982550, -0.25008163, -0.01452504, 0.03681632, -0.21423848, -0.25235936, 0.11899658, 0.13753521, -0.03409950, 0.21201086, 
	-0.00264477, 0.15853348, -0.05022724, -0.13672230, -0.12530194, 0.03855823, 0.11912403, 0.01495007, -0.02832804, -0.14557531, 
	0.13401611, 0.06120759, 0.10412843, 0.03152723, 0.11274337, 0.06068987, -0.00990946, -0.05858978, 0.10128882, 0.06011768, 
	-0.06256118, -0.01205605, -0.01852128, -0.17100169, -0.09057716, -0.00020307, -0.05834557, 0.11414691, -0.00796687, 0.15009323, 
	0.02232301, 0.08456420, 0.07266198, 0.04650530, -0.00440159, -0.02754971, 0.11753020, -0.03621425, -0.04927607, 0.00139453, 
	0.01315843, -0.13891673, 0.13787235, 0.04047372, 0.03308937, 0.01408609, -0.12140839, -0.20949395, 0.15006818, 0.16253580, 
	0.13194801, -0.10098729, 0.15840025, -0.28660840, -0.04882985, 0.03423907, -0.03870634, 0.00743887, 0.00667981, 0.01944484, 
	0.03349912, 0.00607913, -0.07871253, -0.01159009, -0.06578033, 0.11902153, 0.05922999, -0.11626229, -0.09837261, 0.04470585, 
	0.04329407, -0.04477799, -0.06268674, 0.04382172, -0.01283430, -0.02996955, 0.06266613, -0.11939982, -0.03676579, -0.02751710, 
	0.06451721, -0.01820702, -0.04816067, 0.14422829, 0.01370414, 0.01306033, -0.03452527, -0.05938420, 0.08517984, -0.22601494, 
	-0.17738004, 0.00934483, 0.14706305, 0.06866404, -0.01928853, 0.05821423, 0.43764082, -0.07325496, -0.09801182, -0.16662951, 
	0.00448973, -0.01257672, -0.04526351, -0.02282788, 0.02149414, -0.04729903, -0.04718956, 0.01542545, 0.07336722, 0.08362774, 
	-0.19181368, -0.07780465, 0.03621164, 0.01870747, -0.01437183, -0.13684438, -0.04181873, 0.11732018, 0.06436791, 0.05452139, 
	-0.01151437, 0.05801186, 0.11263224, -0.11238579, -0.05267908, 0.09818553, -0.04665912, 0.04764724, 0.09430525, 0.10449091, 
	0.02871230, 0.02562474, -0.00563891, -0.17800727, -0.10753436, 0.08464758, 0.01097230, 0.07363183, -0.27225742, 0.07516350, 
	-0.00572903, 0.01057098, -0.01732089, -0.36461228, 0.17403241, -0.01513984, -0.02261862, 0.01348527, -0.15421833, -0.00164653, 
	-0.01013061, -0.15291139, 0.04276901, 0.00722667, -0.05835779, 0.06335264, 0.03061000, 0.05623956, 0.13434336, 0.03992815, 
	-0.07493305, 0.05855568, 0.02546594, 0.01244597, -0.04593898, -0.13091123, -0.02131297, -0.04332877, 0.18170798, 0.02684319, 
	0.00538333, -0.10589238, 0.03289196, 0.14855944, 0.15445751, -0.10780886, 0.05433369, 0.28516760, 0.01454887, 0.05657215, 
	-0.07782538, 0.03327311, 0.16231126, 0.02810251, 0.05354008, -0.07352705, -0.02525830, 0.04693866, -0.12363824, 0.09800711, 
	0.15497798, 0.14558616, 0.07758766, -0.18294628, 0.11285681, 0.06494690, 0.06539366, -0.14519000, -0.16611214, 0.04532525, 
	0.00647557, 0.04719514, 0.06476556, -0.00085989, 0.05756763, -0.01748701, -0.05407775, -0.09984486, -0.03573604, -0.00044390, 
	0.11428033, -0.13580538, -0.00487098, -0.18599027, 0.18586619, 0.02847279, -0.19604598, 0.00110115, -0.00405757, 0.06161799, 
	-0.01314535, -0.26123270, 0.02514124, 0.18187000, 0.23325419, 0.03080006, -0.18873259, 0.17006993, 0.03845693, -0.03193789, 
	-0.01894337, -0.02289954, 0.09191904, 0.12307517, -0.02153720, -0.07951559, 0.04010880, 0.09685353, -0.01333030, 0.00248854, 
	0.10099880, 0.06497796, 0.02739531, 0.07035141, 0.00165039, 0.04575893, 0.01678346, 0.10845195, 0.02740155, -0.04976877, 
	0.06183722, 0.01677305, 0.00763415, 0.09456861, 0.00211822, 0.02016480, -0.00207308, -0.06149666, 0.13441819, 0.02456083, 
	-0.00664286, 0.03395339, 0.08565684, 0.03372486, -0.02822277, -0.00675488, 0.04730646, 0.10115127, 0.08826672, -0.11087492, 
	0.01659807, -0.16960558, 0.12678298, 0.10146951, 0.01937426, -0.02619742, 0.05203034, 0.17588615, 0.04073608, -0.05075732, 
	-0.02376533, -0.05603434, -0.08447532, 0.00033863, -0.06560016, -0.00599898, 0.00396433, 0.00102338, -0.05554444, -0.09305735, 
	-0.09841494, 0.04585610, 0.19366463, -0.20547321, 0.03451345, -0.07597530, 0.11343535, -0.12118068, -0.20379297, 0.03712143, 
	0.03613527, -0.07826952, -0.12752913, -0.29007810, -0.00116146, -0.08677722, -0.06272226, -0.05835930, 0.03319741, 0.05389679, 
	-0.12722650, 0.06519888, 0.02530143, 0.21368697, -0.01353261, -0.11580829, -0.29510707, 0.03986767, 0.08430050, -0.00853124, 
	-0.18939961, -0.05786467, -0.06868547, 0.05811334, 0.14088365, -0.06357098, 0.03890821, -0.01445232, 0.15420407, 0.10019836, 
	-0.00074714, -0.03595854, -0.01804405, -0.01011674, 0.05170048, 0.02052795, -0.01038806, -0.06013441, 0.03353974, 0.03040266, 
	0.04643908, -0.28366482, -0.15796934, 0.10988804, 0.11478625, 0.00826023, -0.40425950, -0.30797490, 0.12744749, 0.22319642, 
	-0.04740330, -0.13576497, 0.01218484, 0.02126820, 0.03750235, 0.03363876, 0.01625758, 0.06643867, -0.10716854, -0.11169821, 
	0.09945389, 0.06096040, -0.04885309, -0.10600788, -0.00724098, -0.11381198, -0.04078921, 0.07453445, 0.05490297, 0.06949395, 
	-0.03054746, -0.14678644, 0.09408802, 0.05443766, -0.06148445, -0.04544193, -0.02695706, 0.16636655, 0.07107940, -0.02646517, 
	0.03716848, 0.07296746, 0.05841781, -0.05922392, 0.01474749, -0.10538141, -0.05395309, -0.05182119, -0.06670562, -0.02752967, 
	-0.15101628, -0.07268491, -0.42695239, 0.07409226, -0.01958203, -0.02414012, -0.13301800, 0.24745679, 0.06254072, -0.18340315, 
	-0.02241505, 0.09706723, 0.05153281, -0.07366825, -0.00728016, -0.05327657, 0.09377354, 0.08615455, 0.11433516, 0.13076757, 
	0.00507637, 0.00642806, 0.03179898, 0.08680249, -0.04289951, 0.01329775, 0.00652420, 0.11284242, -0.17120102, 0.07371999, 
	0.07995710, -0.12046003, 0.10485772, 0.09179605, -0.01316102, 0.10568464, 0.14561293, 0.14663363, 0.09605542, -0.02550481, 
	0.02953880, 0.01137233, 0.01484242, 0.06202573, -0.01261422, -0.00415040, 0.08205382, -0.00086866, 0.13898322, -0.03882236, 
	-0.04298212, 0.13606183, 0.10209490, 0.01169841, -0.01122708, -0.06128594, 0.00703911, 0.10210713, 0.27066997, -0.00754693, 
	0.00106267, -0.00914964, -0.20752193, 0.20438333, -0.09692868, -0.05512058, -0.02378017, 0.02044507, 0.06115371, -0.05094640, 
	-0.01193029, -0.01601441, 0.05201175, -0.00293474, 0.02686387, -0.12558526, -0.00143336, 0.07588021, -0.00264869, 0.11174315, 
	-0.12432679, -0.10557924, -0.03737528, 0.00774515, 0.02948321, -0.15225604, -0.18737319, 0.03121699, -0.22889462, -0.10425804, 
	0.03144870, 0.05720603, 0.06692784, -0.02924746, 0.17949453, -0.11041034, -0.20240828, -0.04696191, -0.11013023, -0.04138354, 
	-0.04272855, -0.09527408, -0.06050253, -0.06926858, -0.14877550, -0.04397989, 0.05562675, 0.31631312, -0.04369574, 0.00635512, 
	-0.01514912, 0.04150070, 0.04172683, -0.07702664, -0.08709215, 0.07273480, -0.01100756, -0.02058936, -0.06280947, 0.00802086, 
	-0.09851727, -0.05980603, -0.03112751, -0.04062141, -0.08365418, -0.06597141, 0.12003103, 0.07029434, -0.03075373, -0.17672101, 
	0.02269378, 0.07007023, 0.10417325, -0.01866689, 0.06856891, 0.03013155, -0.04803898, -0.26269132, -0.22668462, -0.12107962, 
	-0.04103613, -0.01239155, 0.02758893, -0.05155929, 0.01242555, 0.03894417, -0.02246131, -0.05513831, -0.12941983, -0.06716578, 
	-0.01469711, -0.06876384, 0.21150722, -0.14538297, 0.03930365, 0.09584733, -0.07893135, -0.09949701, 0.16969919, 0.02960720, 
	-0.08727235, -0.17563125, 0.05178000, -0.01470734, -0.04770731, 0.08016735, 0.11960085, 0.02081554, 0.00770044, 0.02348232, 
	-0.08625413, -0.00610217, -0.02965329, -0.01004421, -0.07754514, -0.04970387, 0.05025855, 0.06572922, 0.02570601, -0.05848127, 
	0.05153884, 0.11659204, 0.29128659, 0.00354618, 0.03835404, 0.06244562, -0.04835608, 0.16114195, 0.04509125, -0.00257770, 
	0.09257661, 0.05810754, -0.07135613, -0.11169831, 0.01885411, 0.01929411, 0.05804146, -0.08530248, -0.06070685, -0.02654328, 
	0.06424654, 0.07950083, 0.11371500, 0.02253200, -0.02533654, -0.05478251, -0.07776847, 0.08533082, 0.00984739, 0.17162752, 
	-0.02586815, -0.03168749, -0.17175563, -0.00822620, 0.00864777, 0.02260386, 0.09643430, 0.04917168, 0.10764393, 0.12104346, 
	-0.01115381, 0.04713305, 0.08617562, -0.01465984, 0.00964294, 0.00287914, 0.02010568, 0.06480058, 0.14217347, -0.06976452, 
	0.01851540, -0.00914784, 0.12843542, 0.18883260, -0.09357656, -0.08403547, -0.11619350, 0.07059643, 0.06586991, -0.13615020, 
	-0.00340154, 0.03343680, 0.01672478, -0.01917127, 0.03252873, -0.00308966, 0.04690795, 0.02534938, 0.00426758, -0.01580615, 
	-0.03394109, 0.03651033, 0.21200144, 0.01069973, -0.03237153, -0.11750421, 0.01170374, 0.10228523, 0.03870016, 0.06907777, 
	-0.04289382, -0.09014659, -0.10722739, -0.05369909, 0.04748914, 0.19528432, 0.02646868, 0.02759683, 0.06570682, 0.09251583, 
	0.04235426, -0.11455120, 0.16425355, -0.03911769, 0.07011705, -0.00681722, -0.00747742, 0.18875012, 0.09152492, -0.08525632, 
	-0.02899487, 0.19713598, 0.04196902, -0.01854671, -0.21684846, 0.01053797, -0.04711943, 0.04572481, -0.09974724, -0.28400105, 
	0.02204189, -0.00514709, 0.04016379, -0.01400806, 0.06241591, 0.06317997, -0.07755540, -0.01702522, -0.01239332, -0.12357704, 
	0.03344224, 0.02398109, 0.09060203, -0.02513335, 0.00015333, -0.08273798, -0.02014135, 0.21467510, -0.04328917, 0.05708170, 
	0.00025930, -0.02353428, -0.22783940, 0.11633918, -0.03989050, -0.06419717, 0.12066824, 0.01864276, -0.06200492, 0.16026738, 
	-0.09803049, 0.03357443, 0.13767514, -0.11302953, 0.02922965, -0.01798693, 0.19153155, 0.06607153, -0.01732428, -0.02948744, 
	-0.00422704, -0.08711245, 0.39416751, -0.15053876, -0.03679972, 0.00126564, 0.05584788, -0.06776501, 0.05160327, 0.02110522, 
	0.02524512, 0.04887228, -0.00653220, 0.05546591, 0.02879716, 0.01833577, -0.01820760, -0.01371971, 0.02827176, 0.00667228, 
	0.01754808, 0.18223760, 0.11755454, 0.05217751, 0.03048751, 0.08402704, 0.13184409, 0.17493182, 0.10680034, 0.05782598, 
	0.07750852, -0.01856989, 0.11888790, 0.18345067, -0.03203928, -0.04522013, 0.00925350, 0.02308282, 0.07415414, 0.07570275, 
	-0.03543403, 0.02484025, -0.12890671, -0.01554957, -0.00140895, 0.07183715, -0.04259732, -0.09262742, -0.05992502, 0.01288885, 
	-0.03684806, -0.03006379, 0.14502174, 0.16210908, 0.04970797, -0.02203782, -0.12537184, 0.05214995, 0.05645802, -0.00981760, 
	0.03095789, -0.01552968, 0.00840002, 0.15063472, 0.02990467, -0.03082704, -0.16745666, -0.19134417, 0.07080174, 0.13770925, 
	0.10276719, -0.33762571, -0.34722781, -0.06174169, 0.05818591, 0.07094646, -0.06282867, 0.05855830, 0.04297820, 0.03608390, 
	0.08000858, -0.02306075, 0.07777500, 0.00469949, -0.05022048, -0.07939927, -0.03924932, -0.06301109, -0.15625325, 0.04864234, 
	-0.03592762, -0.19277862, 0.03823240, -0.14384796, -0.16670622, 0.09528597, 0.02108604, -0.05784921, -0.03446333, 0.03891473, 
	0.13860206, -0.11150628, -0.16609298, 0.12547266, 0.08153195, 0.08979201, 0.00323594, 0.10185007, -0.01689148, 0.00682142, 
	-0.00807797, 0.07878955, 0.02571147, -0.16391273, 0.01565071, 0.00591101, -0.01232931, -0.03316972, -0.11038743, -0.02418643, 
	0.11172164, 0.19951604, 0.05275239, -0.02135862, -0.07777209, 0.00083211, 0.06680159, 0.05098598, 0.15837112, -0.04153285, 
	0.01559278, -0.12283476, 0.06543023, 0.09226532, -0.03337393, 0.02731954, 0.04577312, 0.05421952, 0.01705252, 0.10542675, 
	-0.02575717, -0.07718097, -0.07078290, 0.03553831, -0.00951578, -0.05569112, 0.02906970, -0.13706952, 0.01823263, 0.12364805, 
	0.07975300, -0.00976026, 0.11337269, -0.04037579, 0.09214276, 0.05065300, 0.02281114, -0.02011392, 0.06951008, 0.01154511, 
	-0.06055890, 0.07197251, -0.05398598, -0.08671965, -0.13075124, 0.00493558, -0.05053552, -0.16643448, -0.00516054, -0.01452715, 
	0.10578730, -0.00091077, 0.09393979, 0.18900245, -0.14775921, -0.01347729, 0.01685269, 0.05258511, 0.01254706, -0.08563848, 
	0.17303911, 0.13899224, -0.10224484, -0.07736591, -0.08188748, -0.00988155, 0.03972607, 0.11350637, 0.06045418, -0.06501450, 
	0.15774183, -0.05521928, -0.00809277, -0.05580875, -0.07118014, 0.04594136, 0.19121513, 0.19318426, 0.08379766, -0.04802129, 
	-0.02392354, 0.08489478, 0.16314265, 0.08044064, -0.02398005, 0.19939089, 0.12534882, -0.00471985, -0.09506477, -0.05964765, 
	-0.03842817, 0.04279941, 0.02912924, 0.04092674, 0.07393886, -0.04192843, -0.00365829, 0.04920948, -0.22618555, -0.00730177, 
	0.01718415, 0.00871906, 0.05988335, -0.34128308, -0.21465620, 0.07440775, -0.03359286, -0.11870401, -0.18593995, -0.05229532, 
	0.03138955, 0.01637137, -0.07083861, 0.18581584, -0.00566755, 0.07146097, 0.08445954, 0.04682876, 0.05997800, 0.04143541, 
	-0.07497428, 0.07655602, 0.05808407, -0.03082037, -0.00808880, -0.02818992, 0.06747267, -0.13519354, -0.08262517, -0.01827000, 
	0.10787115, 0.08260562, -0.06448593, 0.09552425, -0.07828543, 0.05408136, 0.08646707, 0.06351899, 0.09838194, 0.04171623, 
	0.03521521, 0.07783741, 0.06632635, 0.01219598, -0.01139345, 0.07896033, 0.00405356, 0.04952049, -0.04229626, -0.00525722, 
	0.08363198, 0.13418494, 0.10285033, 0.04829667, -0.00967969, 0.05288382, 0.02747478, 0.08834107, 0.04541784, 0.01396092, 
	0.09765796, -0.07949631, -0.02405117, -0.08032440, 0.01017987, 0.07143082, 0.06983107, 0.01705326, 0.09944581, 0.00353508, 
	-0.03973721, -0.03103289, 0.10290249, 0.08880193, -0.19262865, -0.00698343, -0.18604733, -0.26931179, -0.06540643, 0.00923383, 
	-0.05222740, -0.03445399, -0.07506657, 0.21340977, -0.01551499, 0.11341922, -0.10179970, 0.09021670, -0.03979268, 0.02567310, 
	0.12068376, 0.10268880, 0.11471532, -0.03579862, -0.00110840, 0.10883397, 0.11034109, 0.14351906, 0.03604534, 0.03674767, 
	-0.08570024, 0.05296177, 0.11869027, 0.15718876, -0.01678482, 0.09791580, 0.06770667, 0.10294556, 0.03596190, -0.01899271, 
	0.13038886, 0.08392884, -0.06928562, -0.01311231, -0.00080713, 0.14928699, 0.12172793, 0.00875644, 0.12443089, 0.11360011, 
	-0.06289066, -0.04066315, -0.05827609, 0.10776278, 0.11445827, 0.07179269, -0.06150959, -0.08057341, 0.15364142, -0.02656779, 
	0.00779665, 0.01596094, -0.08590791, 0.18290251, -0.19530056, 0.03576358, 0.23899208, -0.01720875, 0.09154495, 0.00772210, 
	-0.16091023, -0.02166571, 0.02259580, -0.06425036, 0.04667512, 0.00099903, -0.15883954, -0.04594271, -0.30588317, 0.19213060, 
	0.05730309, -0.07557058, 0.15199329, -0.24090202, -0.15404126, 0.01818965, 0.17731160, -0.00800817, 0.15498352, -0.12927182, 
	0.02348366, 0.05476238, -0.10810722, -0.00374392, -0.08086242, -0.08287597, 0.09023833, 0.01594757, 0.06077135, -0.00670780, 
	-0.09240823, -0.04077306, -0.22202498, 0.01237887, 0.04435960, 0.06239535, 0.00243585, -0.08100662, 0.08793250, -0.01409946, 
	-0.03427904, 0.19262342, 0.03218506, 0.07316203, -0.08272286, -0.01329739, 0.05792521, 0.08823833, -0.01672750, -0.09340511, 
	0.01713989, 0.07206771, 0.01978972, 0.02254329, 0.00767424, 0.03139932, 0.02225161, -0.09718604, 0.00129857, 0.01024211, 
	0.05461743, 0.07062036, -0.13355690, -0.00182940, 0.06779662, 0.05681312, -0.05715045, -0.03530168, 0.04359758, 0.04866305, 
	-0.02754155, -0.10042670, 0.06674331, 0.01853881, 0.06728040, 0.01220909, 0.00092734, -0.04730861, -0.18760626, 0.12277788, 
	-0.08472004, -0.05798995, 0.00161709, -0.12958714, 0.03934666, -0.07863379, -0.24503589, -0.07270765, -0.23373580, 0.01676441, 
	0.08405840, 0.05612316, -0.04654792, 0.06034106, 0.08972908, -0.00557034, 0.02320886, 0.02460561, 0.13943580, 0.05920741, 
	0.02319214, -0.06011647, -0.02955600, -0.01653802, -0.01806559, -0.03383367, 0.01167545, 0.03159264, 0.01769623, 0.00255260, 
	-0.04483421, -0.01131312, -0.01980834, -0.04335506, 0.00787100, -0.04551405, -0.04103108, -0.05304580, -0.01514132, -0.02651300, 
	-0.00078541, -0.00958653, -0.00770986, -0.00959653, -0.00005633, 0.02336289, -0.00057635, -0.04693547, 0.00568511, 0.01614486, 
	-0.00298757, -0.02440202, -0.02557186, -0.03450713, -0.06070668, 0.03327455, -0.02324640, 0.01990673, -0.06074247, 0.02467495, 
	-0.05158601, -0.02670612, -0.06001529, 0.03511751, 0.02638298, -0.04175850, -0.04083302, -0.03375708, 0.01505727, 0.02973377, 
	0.02380824, 0.03477500, -0.04628561, -0.00012045, -0.04862595, -0.03361733, 0.00784175, -0.00829682, -0.00961313, -0.03331074, 
	-0.05715739, -0.04300381, -0.01705776, -0.02833809, -0.01097546, -0.01326821, -0.05227097, 0.00508456, -0.03469166, -0.01102451, 
	0.00072100, -0.04811246, 0.02316581, -0.02253865, -0.05511018, -0.03893377, -0.04601385, -0.02947192, -0.04353605, -0.01938230, 
	0.00804656, 0.02370771, -0.03608177, -0.01263422, -0.01762497, -0.04174382, -0.03651230, 0.00084700, -0.03066292, -0.01676786, 
	0.01080011, 0.00760766, -0.02696678, 0.00940801, -0.00917969, -0.04116611, -0.03650421, -0.04166053, -0.04627674, 0.03571593, 
	0.02685676, -0.05247411, -0.04689059, -0.05140973, 0.01679692, -0.01637809, -0.00338254, 0.02791094, 0.01775191, -0.05961565, 
	-0.03176045, 0.02521545, 0.02084839, -0.02988985, 0.03225264, 0.00371730, -0.05997961, -0.00210692, 0.02923540, 0.00163763, 
	-0.02082929, 0.00441691, -0.03342348, -0.03129463, 0.01863122, -0.04828610, -0.02857662, -0.04467760, 0.00857750, -0.00678877, 
	0.00817886, 0.00552768, -0.03764144, -0.01733080, -0.01163838, 0.00553767, 0.00281986, 0.01822593, -0.01034854, -0.01835748, 
	-0.05176106, -0.00201254, -0.05091459, -0.03166146, 0.02936361, 0.00749026, -0.02807129, -0.03971744, -0.01877039, 0.03512632, 
	-0.01063269, -0.02881211, -0.04842722, 0.00179847, 0.01860657, -0.01438172, 0.01987967, -0.05018781, -0.01809650, 0.04010161, 
	0.00569808, -0.03341046, -0.04030826, -0.03264958, -0.03778044, 0.00242778, 0.00381736, -0.01050196, -0.00929264, -0.05382412, 
	-0.02955004, -0.04708337, -0.03308656, -0.00932522, -0.01576259, 0.01089950, -0.03191354, -0.04768099, 0.01347990, -0.04650062, 
	0.03315982, -0.01012992, 0.00328197, 0.02296113, 0.01971897, -0.04387224, -0.00621308, -0.05775824, 0.00106982, 0.02515025, 
	0.02755411, -0.05777318, -0.05365102, -0.01306811, -0.03535996, -0.05015025, -0.01840993, 0.00854411, -0.06083491, 0.03215919, 
	-0.04706270, -0.02400767, -0.06161364, -0.05152736, -0.01357518, -0.00172536, 0.01480992, -0.03706221, -0.04977302, 0.03737558, 
	-0.05260149, -0.06088535, -0.02571069, -0.01115726, 0.00301190, -0.05646720, -0.02110611, -0.01958464, -0.00616556, -0.01749910, 
	0.03159725, 0.02482376, -0.05899356, -0.03195646, 0.01729853, 0.01678207, -0.05574916, -0.00549057, -0.01403205, 0.01390717, 
	-0.00849456, 0.03136483, -0.01720444, -0.00165464, -0.04565449, 0.00312462, -0.00586775, 0.00189120, -0.05910493, -0.05049422, 
	0.03000047, -0.05213840, -0.01806077, -0.03780094, 0.01385876, -0.04516498, -0.02250925, -0.01423552, 0.02450244, 0.01694367, 
	-0.01706121, 0.01700858, -0.02823481, 0.00804318, -0.02097210, -0.04021935, -0.03544398, -0.01607622, 0.03559361, -0.01735552, 
	0.02901575, 0.01700568, 0.02487586, -0.02136024, 0.01896312, -0.04147377, -0.01601492, -0.04466546, 0.00717650, -0.01241975, 
	0.02031500, -0.03063954, -0.02082126, -0.04661761, -0.03051623, -0.03533711, -0.05153823, 0.02486594, -0.05748766, -0.02551987, 
	0.02225753, 0.02807116, -0.03176487, -0.04914822, 0.01412039, -0.04098130, 0.01996234, -0.03543142, -0.05220309, 0.00582959, 
	-0.03534865, -0.04032530, 0.02708085, 0.02688461, 0.01676759, 0.01479151, 0.02525806, 0.01845857, -0.03124066, 0.00519937, 
	-0.05874161, -0.02603609, -0.04592136, -0.04325677, -0.02678226, -0.04020269, 0.03433518, -0.02065974, 0.00579523, 0.01703639, 
	0.02107702, 0.02739044, -0.05222555, -0.04494470, -0.04791668, 0.00744928, -0.00418531, 0.02028648, -0.01789966, -0.01490897, 
	-0.03745395, -0.02160927, -0.00395526, -0.02677705, -0.01646289, 0.02198257, -0.04417596, -0.01064664, 0.03153361, -0.00147440, 
	-0.04601726, 0.00691957, -0.01253060, 0.01185987, -0.01942339, -0.05936215, -0.04681021, -0.01655398, -0.02988378, 0.00129861, 
	-0.05080418, -0.05790192, -0.01116453, -0.04997378, -0.04056119, -0.02335764, 0.01199433, -0.05164536, -0.00753088, 0.00878445, 
	-0.05455922, -0.01338818, -0.03514843, -0.03227859, -0.01276912, 0.01182964, 0.02859430, -0.03352451, 0.01314748, -0.03960317, 
	0.01673644, -0.05371912, -0.01526613, -0.04704604, -0.02966105, -0.00137152, 0.01045861, 0.02106614, -0.01613296, -0.03304251, 
	0.01078516, -0.00908659, 0.04489280, -0.03114262, -0.04278865, 0.02181200, -0.03029601, -0.04710103, 0.02632933, 0.00909970, 
	-0.01718092, 0.03317216, 0.00501348, -0.01376554, 0.01686364, -0.01276310, -0.05466870, 0.00855762, 0.00005565, 0.00846797, 
